0.28143257 0.3201337 0.21163332 0.36530787 0.36363044 0.09673192 -0.09032094 -0.013645611 0.007047847 0.12578195 -0.14155585 -0.14064085 -0.1613709 -0.035808094 -0.07724882 0.11034858 0.07203572 0.066621736 -0.078397684 -0.04871935 -0.06431134 -0.10053579 0.07453862 0.017390786 -0.1639767 0.009913892 -0.013079449 -0.011703012 -0.051804546 0.052292477 0.22105941 -0.020882718 0.13832027 0.08145148 -0.01806457 -0.02030954 -0.0041573592 -0.1911467 -0.044583026 -0.15892586 0.13412072 -0.056041103 -0.042615753 0.07362246 0.07841367 0.03593114 0.061216086 -0.052801892 -0.18709555 -0.15411718 0.06858071 0.053968865 0.038364235 -0.017902717 -0.024885265 0.022675876 -0.085519716 -0.15398379 -0.15558691 -0.012342244 -0.098643005 0.14441065 0.055261567 0.03943887 0.06774661 -0.104341395 -0.044495888 0.044698063 0.0025373057 0.04319278 0.009026239 0.08087705 -0.049653497 -0.014576827 0.12377576 -0.02312238 -0.021028733 -0.1591492 -0.19194856 -0.14256078 0.08233571 0.03510232 -0.04233546 0.048257504 0.056247998 0.04091451 0.018539492 -0.147513 -0.08002595 0.04684029 0.16992825 0.07056714 0.067683354 0.069234386 -0.010555189 -0.27790424 -0.26876578 -0.27647594 -0.08782946 -0.24560352 -0.18501794 -0.14530414 0.029247459 -0.040945534 0.121009186 -0.04770717 -0.037152685 0.15043284 0.053515997 0.021026831 0.11186315 -0.058825716 0.14376572 -0.058619164 -0.0046287235 0.06690501 0.039899852 0.019298924 0.033629347 -0.010812542 0.13677333 -0.014173674 0.10919874 0.039244458 0.15948062 0.005155335 -0.030231655 0.039871052 -0.1580928 -0.020304019 0.1275443 0.075530335 -0.058673635 -0.04000365 -0.001442848 -0.018501358 -0.05288771 -0.081072606 -0.11756482 -0.034211475 0.01827541 0.056185093 0.1759986 0.05433193 0.110936895 -0.09365427 -0.08587809 -0.12128228 0.066195786 -0.013162612 -0.12428528 -0.13351619 0.05529872 -0.08845566 -0.023288172 0.24428456 0.14711507 0.031645082 -0.026572973 0.0677443 0.13492912 0.0416123 0.021811413 -0.058893315 -0.059845358 0.11648645 0.11540059 0.048429966 0.008991357 -0.036279783 0.06230036 0.072691806 0.20437694 0.039037347 0.16380988 -0.06021231 -0.13308448 0.0684081 -0.049900834 0.009851273 -0.061347608 0.1680626 -0.0999541 -0.15556128 0.017924521 -0.20491664 -0.002260024 -0.117525354 -0.047528077 -0.025032237 -0.057740968 0.049956635 0.11535655 0.12778208 0.046492614 -0.024670063 -0.031057466 -0.017440261 -0.11290498 0.040795043 -0.02750961 -0.17488153 -0.0012382717 -0.07805753 -0.048387755 0.17891623 0.031462107 0.19466534 0.050658513 0.09635151 -0.024673877 0.094711885 0.15169168 0.11373444 0.14878373 0.20747133 0.062407214 0.03586717 0.069533594 0.14382428 -0.09130212 0.012247979 0.14815345 0.1092721 -0.015179241 -0.16321568 0.02165509 0.04575612 -0.15254979 -0.024206625 -0.07514859 -0.07383838 0.015691115 -0.10413376 -0.10926067 0.046285335 -0.0719259 0.08795328 -0.03981183 0.11093622 0.04712504 -0.043325085 0.18853061 0.1753477 0.05509741 0.022078073 0.045747682 0.21352288 0.1444058 -0.010676264 -0.0015295052 -0.09831959 -0.009338501 -0.11965542 -0.08904074 -0.0716196 0.10868753 -0.06934108 -0.13398588 -0.106071375 -0.08102903 0.080131054 0.11513019 0.13272901 0.17080548 -0.072891176 -0.121945225 0.11135464 0.11621099 0.12677284 -0.011873361 0.07979423 0.074705765 -0.03098108 0.13332844 0.09796355 -0.05280599 0.05352366 0.08294506 0.061006945 -0.048934102 -0.08426606 -0.13235502 -0.101435535 -0.14188974 0.01811305 0.038569216 0.013865008 -0.099644735 -0.1903961 -0.19331092 0.0919038 -0.076951176 -0.06921764 -0.12883095 -0.16256472 0.07392784 -0.11661638 -0.10529243 0.10993123 -0.2814031 -0.13131788 -0.09824292 -0.08728443 -0.064888895 0.025304034 -0.16735646 -0.070382364 -0.071975805 -0.008683975 0.14399412 0.11649353 0.19374904 -0.048658937 -0.13444835 -0.057578497 0.0021717579 -0.11074814 -0.049671512 -0.03278187 -0.07036818 0.19180602 0.1442129 -0.0730457 0.07993761 -0.2971421 0.016594205 -0.09216748 -0.040558577 0.027729688 -0.08855611 0.03524572 0.074853085 0.0674818 0.09834535 -0.2306552 0.04346392 -0.051243924 0.009837446 -0.02447233 -0.08639752 0.045694083 -0.027378775 0.017354403 -0.061829343 0.22519052 0.19662355 0.0119482605 -0.043977216 0.12138644 0.18195099 -0.070555896 0.13338731 0.0637767 -0.10101318 0.07594036 0.13541965 0.08161836 -0.10310741 -0.14415914 -0.09723775 0.050339114 0.08120793 0.043291587 -0.01711318 0.05194513 0.08067528 0.008037769 -0.14649355 -0.1039468 0.06608965 0.11810472 0.04819603 0.052951757 -0.0321059 -0.0042834836 0.13224596 0.1267681 0.02610592 -0.01444806 -0.1290267 -0.13962424 0.11149761 0.19219008 0.021533722 -0.07411939 -0.07395212 0.08815902 0.07487342 -0.032065958 0.15712209 -0.032704636 -0.04470413 0.1693934 0.07509238 0.05670828 -0.14271598 -0.23302937 -0.2407572 -0.051432878 -0.062965155 -0.09610211 -0.12176556 -0.12804808 -0.083759695 -0.05683465 0.08415695 -0.010664263 0.06575274 0.059971612 -0.0033679814 -0.013162867 0.041734368 0.06708631 -0.06781687 0.24867518 0.26034114 0.30014113 0.13621506 0.28565478 0.112922825 0.015421921 0.18603075 0.09544926 0.17839795 0.015982063 0.009741193 0.024227526 -0.011232621 -0.10080319 0.15475033 -0.007089884 0.17106456 0.05649084 0.14835778 -0.10678889 0.04066349 0.018401574 -0.07970342 0.032039046 0.055862065 0.2732734 0.23891082 0.15778954 0.15781862 0.038596176 0.062659636 0.012412985 0.013285734 0.11413907 0.14838694 0.03642769 0.16518888 0.10466394 -0.02993479 0.21733771 0.14983626 -0.03772586 0.0929967 0.08121848 0.15066016 0.1074921 0.16586925 0.22245121 0.18300496 0.028626347 -0.015491165 0.0035091063 -0.051619638 0.0003471589 0.11842755 0.077413864 0.14069399 0.13712487 0.006854387 -0.06516605 -0.019736623 0.053493213 -0.072788775 0.025136247 0.03785694 0.15760483 0.035740685 0.09873544 0.15433884 0.0870821 0.012417642 -0.0698045 -0.03550438 -0.09453685 -0.15287739 -0.040349625 -0.063978665 0.120454885 -0.01193858 0.051817406 0.06696735 0.08698838 -0.0047755046 0.18728857 0.0009943402 0.03560686 -0.06762514 -0.087359756 -0.005943255 0.12629175 0.12664159 -0.08868818 0.08906608 -0.045403786 -0.15530035 -0.1990676 -0.11773084 0.061206378 -0.0817531 -0.05766293 0.030603763 -0.018214054 0.019653905 -0.060754076 0.003472074 0.05085013 -0.111160636 -0.04903212 -0.011891678 0.040866736 -0.034445804 -0.07127784 -0.0046296935 -0.01158556 -0.019472346 -0.020637454 0.015651366 0.15823752 0.0067124544 -0.028477361 -0.17061606 -0.20342958 -0.063535646 -0.051749095 0.15580346 0.20764199 0.109547965 0.0035079047 0.13058197 -0.042146936 -0.09653926 -0.06716973 -0.03404372 -0.13203436 -0.16189812 -0.084463656 -0.06394428 -0.16447257 -0.20405811 0.18196106 0.120647125 0.19299427 0.2052786 0.096941665 -0.13772081 0.037675776 -0.076907694 -0.108829655 -0.11655134 -0.043179102 0.0063350345 -0.08728567 -0.015308808 -0.025759606 -0.013726765 0.052395735 -0.05659301 -0.008273789 0.07903924 -0.13736661 -0.05563475 -0.0787211 0.03699678 0.13148263 0.029455174 -0.046520352 0.033671066 0.15250021 -0.022552067 0.09661847 -0.09539011 0.004024636 -0.026424132 0.09488815 0.14303078 0.0917305 0.028027037 0.049853634 0.10188188 -0.08219177 -0.061394062 0.012151114 -0.036272634 0.0874767 0.25987026 0.16722837 0.14849927 0.11111812 0.030135797 0.0017022195 0.026030581 0.10512515 0.026837781 -0.09111777 0.11315387 -0.027994514 -0.042614553 0.15420187 -0.048744865 0.20831954 0.17381434 0.02770685 0.10092232 -0.015679473 -0.064172156 -0.051448792 -0.04678868 -0.028655857 -0.21270381 -0.1570716 0.013160903 -0.04924586 -0.17564274 -0.078191794 -0.0362303 0.07152171 -0.09511341 -0.07288143 0.040931486 0.020004123 -0.05434141 0.021636583 0.0675729 0.057029895 -0.1094023 0.016061986 -0.08164746 -0.16698165 -0.0041484525 0.11690554 0.16985881 0.028517112 0.011248881 -0.08680242 -0.12398128 -0.07880202 0.13593277 -0.08308105 -0.017808273 0.0459459 0.10518752 -0.02820119 -0.051073562 0.15950397 0.029883895 0.0038544892 0.062747784 -0.034202967 -0.028304154 0.21516925 0.0883758 -0.040460203 0.05514718 0.15954177 0.1591996 0.091704085 0.08433586 0.1892399 0.11076163 0.23088145 0.02950175 -0.035648335 0.042240437 0.112098135 -0.0690457 0.08681065 0.0826111 -0.009853433 0.10117589 0.053418115 -0.00014135626 0.17750071 0.07825937 0.033091236 -0.16127358 -0.2994496 -0.016072033 -0.040401716 -0.06764552 0.014799485 0.15419276 0.114633195 -0.033279575 0.17954452 -0.13460216 -0.036525268 -0.13344017 -0.12154998 -0.0039370116 -0.04304901 0.09130339 0.06955705 -0.04377839 -0.1565437 0.12132898 0.13589731 0.022348104 0.030032491 0.14481379 0.017480837 -0.056139093 -0.017538907 0.0657627 0.12346717 -0.011672306 0.1321594 0.07762947 0.13350233 -0.13624273 0.17421727 0.12755682 0.10331284 0.18760705 0.05747735 0.037169304 0.06123178 -0.0015296371 -0.08669737 -0.09015808 0.009659147 -0.14833952 -0.16901478 -0.05822891 -0.010458067 0.03228346 0.083902195 -0.049044836 0.029247196 0.08542135 0.21900374 0.12353251 -0.055979103 -0.09396825 -0.1749513 -0.040169485 -0.08037895 -0.16224311 -0.13760357 -0.17969032 -0.2303481 0.03176851 0.11246952 0.14465988 0.08943435 0.058012422 0.112453565 -0.06752127 0.096073665 -0.10216838 -0.09141405 0.0015384764 -0.04213385 -0.19079708 -0.17061695 -0.14075536 0.036945395 0.06704719 0.15787387 0.13744764 -0.08525166 0.007816719 -0.013805683 -0.18643467 -0.09008134 -0.1468386 -0.02702263 0.031572755 0.046018966 0.033723213 -0.16908331 0.15523024 0.0022654862 0.14256439 0.063344836 0.20513268 0.17006725 0.17220196 -0.0044087004 -0.00873395 0.088163026 -0.13060878 -0.083167166 -0.17131852 0.10833356 -0.004738743 -0.1399366 -0.15150109 -0.172502 -0.16656144 0.11038953 0.08763727 0.04975119 0.116500854 -0.10103343 0.10878422 -0.11049216 0.08154092 -0.11251793 -0.019770814 -0.072366096 -0.063645855 0.034774136 -0.13700905 0.06769483 -0.07477924 -0.035931382 0.032651264 0.07678742 0.14858407 -0.037970528 -0.017895713 0.08365972 0.046922695 0.035891358 0.008425842 0.14240849 0.14064795 -0.0877282 0.039360836 0.1609284 -0.015808834 -0.029919026 0.08644771 0.014470126 -0.11826228 -0.06378153 -0.24635579 -0.2276123 -0.24030389 -0.12261341 -0.026157705 0.15089811 0.027841825 0.06008483 0.085470945 0.027032973 0.10374542 0.17393577 0.2627842 -0.13902408 -0.23204227 -0.20006032 -0.16662365 -0.10517229 -0.07593478 0.055669293 -0.17746885 -0.043532148 -0.07858493 -0.06583654 0.16309641 0.10369017 0.15658462 -0.115601964 0.05207516 0.05678806 0.17387208 0.11103719 -0.01742133 0.03796232 0.1355864 0.15739019 0.13427997 -0.041039754 0.16647074 -0.04084048 0.16891852 0.19982484 0.038550567 -0.0805587 0.0075653475 0.03697379 0.06574795 0.06774479 0.03268271 0.058405463 0.04638375 0.122533344 0.12295968 -0.0764446 -0.26319447 -0.21127361 -0.17343688 -0.0825489 -0.017870974 0.034170102 -0.11779495 -0.12594755 -0.12604885 0.0669264 -0.122130215 0.05484947 0.07855049 -0.049588647 -0.026341297 -0.17045033 -0.1341226 0.018273948 6.7745323e-06 -0.11374 0.0405318 -0.22322598 -0.11298162 0.0977557 0.038024846 -0.041939702 -0.058385063 0.04187669 0.094816774 -0.06017627 -0.239616 0.009314047 0.05197648 -0.13142084 0.089991316 -0.09755949 0.10300345 0.0039780624 0.0052976017 -0.043147475 0.019404758 0.019117456 0.16073754 0.119531594 -0.108247325 -0.029453492 0.0348493 -0.11708251 0.046356183 -0.017677737 0.11576177 0.019697098 0.009925581 0.04839376 -0.10908784 0.15229234 0.17265621 0.058442213 -0.020138137 0.13703471 -0.031914257 -0.0009724204 0.1820509 -0.015989466 -0.041156907 -0.17349371 0.009759889 -0.011648375 -0.04109563 0.014079895 0.10975901 0.15660416 0.080298916 0.005246863 -0.12060651 0.047651216 -0.13140094 -0.19266342 -0.23557079 0.14447361 -0.048431113 0.040607423 0.031941757 0.029002994 0.04610482 -0.019266421 -0.048430536 -0.1561296 -0.23550391 -0.012997064 -0.08989634 0.09677668 -0.097483315 -0.18782699 0.010941402 -0.0469264 -0.043601062 0.041869022 0.1541063 -0.003194818 0.02276402 0.09624931 -0.12543999 -0.10521348 -0.0656937 -0.0436529 -0.082171656 0.030768408 0.019247768 0.09113804 -0.12016792 0.14035568 0.09580388 0.110257655 -0.0015529189 -0.119313985 0.006718968 -0.079593495 -0.11897259 0.14062826 0.07877851 -0.019447485 -0.13115683 -0.114618324 0.11318865 0.098390445 0.2299821 0.18757643 -0.10016924 0.047035974 0.13602014 0.056772996 -0.10954144 -0.020773659 0.027536038 0.13310818 0.10611008 -0.018057596 0.16202879 0.019007565 -0.041771967 -0.15641199 -0.057183124 -0.13098952 0.039702035 0.07548727 -0.15345053 -0.031965844 -0.02327873 -0.02839197 -0.14345756 -0.06001609 0.03322994 -0.05029661 -0.031675093 0.0013254978 -0.102387734 -0.13161737 -0.015233549 0.059115514 0.12715802 -0.006745483 0.11812276 -0.16189495 0.019366844 -0.03493712 0.0056067323 -0.09334309 -0.037953723 0.042733096 0.07128058 0.058405045 0.16583064 0.15534344 -0.14620636 -0.15169029 0.11186832 0.002440504 -0.097297855 0.020843001 0.21107478 0.18419431 0.07911024 -0.13627833 -0.014599956 0.009804756 0.15230659 -0.017247211 -0.14293426 0.11843262 -0.012958881 0.15054312 0.0824185 0.061773475 -0.1194344 -0.083380826 0.12008225 0.14340094 0.18501955 -0.13264064 -0.05006954 0.04920386 0.24981943 0.23797272 -0.13412027 -0.11601656 -0.12922207 -0.038336616 0.008474899 0.1704612 0.074928805 -0.20747766 -0.053842288 -0.21462686 0.15025575 0.1585157 -0.049533695 -0.03466183 -0.079193845 0.0028716803 -0.068897486 0.17023408 -0.06992528 0.034014337 0.13994442 -0.05778993 -0.0056657563 0.045585927 0.11974662 -0.19729216 -0.1570588 0.12515756 0.07495883 -0.007049029 -0.043213308 0.12587784 0.13183695 0.104166456 0.2074254 0.10967967 -0.094423816 0.17953268 0.07451308 0.19070864 -0.013083695 -0.062136326 0.00932953 -0.017222539 0.05901989 0.08315739 0.18252009 -0.041518208 -0.0525627 0.11968179 -0.0461008 0.0972955 -0.019605743 -0.09898055 0.20435789 -0.06885459 -0.12500346 -0.07987458 0.0774119 0.07016872 0.11981448 -0.06400387 -0.11345388 -0.09459033 -0.17608243 -0.101720355 -0.08313677 -0.09731559 -0.16697714 0.039771635 -0.19107144 -0.051083352 0.15625311 0.19979325 0.015226308 0.0075478037 -0.009591926 0.01952232 -0.01029046 -0.17206594 0.049233675 0.12650625 0.09993175 -0.039734356 0.07764057 -0.0030606522 -0.1619908 -0.0069454024 0.18896836 0.12496048 0.07431803 -0.044450358 0.028258802 -0.012806143 0.03791064 -0.116551675 -0.090084404 -0.09301908 0.054828193 -0.054261286 -0.04056299 -0.15788591 -0.10193731 -0.092806436 0.04298725 -0.13868226 -0.19947664 -0.10959687 -0.078745574 -0.16458663 0.008404994 0.14505057 -0.0070251464 0.10109584 0.15758972 0.19517817 0.20151325 0.12661056 0.025180375 0.08009033 0.074983574 -0.017217563 -0.06434785 0.12951307 0.07135262 0.09344666 0.0149371475 0.10579726 0.15722518 0.009544974 -0.011046346 0.058501024 -0.09212041 -0.0891118 -0.1512138 -0.0033098608 0.07629283 0.101418875 0.08605395 -0.096432306 0.06851259 -0.047510732 -0.12650508 0.068413 -0.15110062 0.105043456 0.069287166 0.038547367 0.0451527 -0.05415316 -0.12928122 -0.034106538 -0.178765 -0.018331824 -0.14388335 -0.09798885 -0.025087267 -0.07423843 -0.060231972 0.08844297 0.018812107 -0.13643329 0.010393719 -0.04054658 -0.030290456 0.09917133 0.048646122 0.14859368 -0.10693082 -0.09363171 -0.21893433 -0.24382496 -0.03222606 -0.09221398 -0.057168793 0.08157941 0.08175809 0.018309088 0.14843948 0.091768995 -0.1252304 0.071579374 -0.10782905 0.018845962 0.06670709 -0.060101938 0.0615286 -0.19713952 -0.17338409 -0.07311249 -0.04925215 0.07324962 0.15030192 0.025993908 -0.082289495 0.06657183 0.09456635 -0.12906314 0.018812709 0.05318351 -0.10328147 -0.019419795 0.06161655 -0.11395323 -0.1279027 0.07638381 0.011138987 0.003050242 -0.09474147 0.059649356 -0.05599954 -0.12683192 -0.092875294 -0.03230135 -0.119231895 0.11257284 -0.06354577 0.16509722 0.20865443 0.19486935 -0.22707556 -0.08880974 -0.05970848 -0.03994628 -0.16957559 0.14212556 0.09758293 0.16995256 0.009004822 0.11811836 0.057147812 0.11947946 -0.019745668 0.0026553383 0.11407268 -0.035483718 -0.024420843 0.071604826 0.05396477 -0.13243641 0.0821801 0.18866892 0.10145317 -0.004243093 0.037657645 0.020967055 -0.068215445 0.0026438786 0.0022131114 -0.14004594 -0.03889491 0.1270649 0.10381675 -0.102944955 -0.15970817 0.14307834 -0.11101701 -0.07148166 0.083433725 0.06803046 -0.24926339 -0.022549989 -0.15713602 -0.07341007 -0.22280447 0.021156315 0.1896055 0.054007724 0.16731738 0.052771643 0.05615782 0.064960405 0.15702152 0.028301695 -0.057706304 -0.08591298 -0.056308277 -0.048887737 -0.057610657 -0.088788874 -0.083212614 -0.122379825 0.0067918985 -0.005749911 -0.052687593 0.045641877 -0.032460332 0.11372471 0.14530714 0.08629803 -0.20892964 -0.14497326 0.0037959686 0.025026143 -0.017587012 -0.13170564 -0.16154195 -0.20384568 -0.17911118 0.05692299 -0.016421812 0.09590062 0.030560536 0.16875435 0.06851206 0.07196189 0.23597282 0.14515507 0.16926824 0.26798868 0.24288213 0.105518386 -0.044379808 -0.11143716 -0.01536856 -0.09338888 -0.1269325 -0.11859365 0.10293391 -0.12289457 0.065981716 0.1357822 -0.015402167 -0.13855986 0.014383769 0.1148528 0.1093322 0.06655426 0.13331941 -0.11511403 0.079844624 -0.15318225 -0.1996678 -0.14214444 -0.13613619 -0.034183484 -0.03259827 -0.13060123 -0.062337484 0.011151696 -0.07278119 -0.077613905 0.068426795 -0.058016963 -0.05680148 0.042074587 -0.027218163 0.11219246 0.12766023 0.056451157 -0.022092195 -0.0015410859 -0.1250975 -0.2114136 -0.14795387 -0.07420674 0.0021580257 0.084997974 0.060095806 0.002623708 -0.036890246 0.077167645 0.0018649531 -0.09343398 -0.060534272 -0.054392997 0.07598035 0.039591532 -0.04206951 0.19106989 -0.15776889 0.026351014 -0.01828077 0.082734875 -0.024788171 -0.13204126 0.131663 0.11699172 -0.04742212 0.037830636 0.003472493 -0.05676675 0.1366231 0.033846285 0.052225236 -0.07354873 0.07454656 0.10025177 0.085073434 -0.051714975 0.05720348 -0.08881735 -0.08565726 -0.11520624 -0.012049793 0.04398911 0.023510192 0.022429444 0.0060563735 -0.017352935 0.058270097 -0.025410589 0.13955864 0.08863674 -0.072095014 -0.059405934 0.011691148 0.016426407 0.026566686 -0.16117671 -0.011065987 0.15282668 -0.054797154 0.1297021 -0.11082657 -0.08405652 -0.19918692 -0.14678095 -0.1893711 -0.019666778 0.15934677 0.16938895 0.08621878 -0.07708268 -0.09610304 -0.07535937 0.11536051 0.091758065 -0.12351009 -0.13082382 0.10103599 -0.14275564 0.15190832 0.18271096 -0.13760298 0.031343754 -0.015778152 -0.0686209 0.038270213 -0.008051529 0.20180108 0.12892374 0.14845316 0.16550271 0.017031835 0.007566805 0.007984783 0.041795406 -0.042631257 -0.05879131 0.07265414 -0.008438897 0.101275206 0.21888743 -0.034734644 -0.17088582 -0.27419734 -0.045846656 0.1829462 0.16918933 -0.14200756 -0.22279239 -0.12989528 0.007540377 -0.169325 0.15793084 0.05655321 -0.10577886 -0.099323794 0.00118085 0.33832663 0.20638472 0.041771796 0.06624906 -0.03328481 -0.13582681 -0.112224236 -0.12229731 -0.08705884 -0.052440867 0.088246636 0.13276891 -0.112044476 0.107339054 -0.0028851603 -0.009157643 -0.009705728 0.027689677 0.09434741 -0.07723363 0.055863492 0.037814308 -0.081374876 -0.083750054 -0.08784527 -0.15876287 -0.16408703 0.018632572 -0.006662627 -0.0028138096 -0.053569023 0.009188744 0.09282088 -0.13763201 0.030214868 0.044572707 0.047421996 0.03484849 -0.08481901 -0.02318462 0.006309973 0.048457272 -0.054288957 0.11184082 0.1425676 -0.16080049 -0.215622 -0.031231403 -0.118351854 -0.029462053 0.18124549 0.019360607 0.13172051 -0.0346485 0.12128285 0.019426739 -0.06545313 -0.050682966 -0.0135899 -0.07220139 0.011521095 -0.077923335 -0.21076944 -0.07655586 -0.15131347 0.07742009 -0.04354794 0.111643456 0.025226103 -0.08174592 -0.11501122 -0.1900469 -0.15577862 -0.24598227 -0.13841711 -0.027860364 0.12218113 0.15810919 -0.028028475 0.13086401 0.12286965 -0.055710364 -0.07629252 0.108896874 -0.0072507435 0.26760793 0.11334186 0.11180427 -0.043938756 0.015244795 0.05647233 -0.037079416 0.086225145 0.112097465 -0.09561012 0.015822513 0.061228916 0.07678505 0.1660559 0.16446011 -0.22644639 -0.061863896 0.07169345 -0.22133386 -0.1808113 -0.11052567 -0.04115029 0.077550866 -0.22269718 -0.16685195 0.015571857 -0.034037754 -0.076800734 0.08108175 -0.010260351 -0.100325234 -0.08804872 -0.18936299 -0.20296906 -0.072339885 0.1616569 0.11997834 0.027703218 -0.011358917 -0.0009138218 0.0016042525 0.1298265 0.066770434 -0.091456294 0.005178853 0.1729353 0.20344608 0.09627593 0.15257302 0.049154527 0.12774403 -0.03186377 -0.12873185 -0.03653214 0.0417526 0.10098826 -0.024387695 -0.02436291 -0.10514986 -0.114740014 0.2002393 0.15282595 0.11085239 0.17702238 -0.045979224 -0.045121856 -0.046281178 0.028062606 0.2184015 0.019902334 0.08870031 0.08464221 0.006309859 -0.026170986 -0.02883925 -0.13031796 0.16579686 -0.0013089598 0.18963619 0.20982863 -0.052291516 -0.09954221 -0.093431845 0.028119024 0.122873046 0.1138254 0.17115903 0.052110612 0.05987326 0.05858162 -0.1271607 0.021691848 0.036453567 0.014282001 -0.047967937 0.00088815665 -0.048642855 -0.031115059 0.108187094 0.09547407 -0.21973678 -0.19004148 -0.18109824 -0.03701061 -0.06136118 -0.20022206 -0.108681366 -0.032464232 -0.142335 -0.060487036 -0.1513879 0.0364207 0.19604431 -0.00020364828 -0.076863565 0.11938224 0.08918515 0.014289471 0.08151666 0.103225626 0.0751453 -0.13589329 0.114114754 0.083537795 -0.0877999 0.13967574 0.04572609 -0.040680524 0.018738497 0.13112019 0.014281793 -0.031023648 0.012449337 0.0006102224 -0.18176997 -0.051760737 0.13255857 0.13568655 0.16313255 -0.039216593 0.0032384694 -0.06619461 0.10413843 0.15075798 0.09780089 -0.09514028 -0.08863046 -0.086368814 -0.040466823 -0.011729383 -0.059317604 0.18632838 0.137334 -0.005896002 0.040096134 0.022908289 -0.061120223 0.08267614 0.08177139 -0.076626554 0.12100321 0.22348078 0.15569776 0.028480731 0.0058530653 -0.11612641 0.036307096 -0.12145535 -0.104506575 -0.04216542 -0.0953112 -0.028243875 -0.19046783 -0.1398088 -0.07657075 0.027387526 -0.012021248 -0.009165189 0.043347947 0.03239019 0.048823375 -0.0052146036 -0.027787587 0.020206023 0.15739235 0.04129586 -0.035181094 -0.10915319 0.053408187 0.1150545 0.09461399 0.06030878 0.15423037 0.20758913 0.14950506 -0.25442988 -0.20813818 0.016138582 -0.20859596 -0.022587245 -0.17513895 -0.1604097 -0.13490579 -0.075898655 0.062172797 0.089441806 -0.0041725524 -0.11347964 0.0083557675 0.10876874 -0.015977476 0.1006893 0.1376536 -0.006027146 0.13835308 -0.0142317135 -0.018398527 0.080673955 -0.024767604 0.08927102 0.11895581 -0.044849314 0.08907265 0.1231623 0.054937135 -0.091290936 -0.0045924657 -0.013162859 0.14291227 0.13458882 -0.095783144 -0.027481103 0.13557933 -0.04753432 0.013898374 -0.0794848 -0.095821805 0.022702828 0.040545467 0.0068394733 -0.026910296 0.09069924 0.07364082 -0.0020636478 0.07976698 0.035396717 -0.16686794 -0.17358617 -0.07856535 -0.037179917 0.12647825 0.09094949 -0.17462361 -0.2205747 -0.056039486 0.18723357 0.17583284 -0.08114915 -0.021307584 -0.10243122 0.18924876 0.09917714 0.16755264 0.027749358 -0.1419949 0.18163593 -0.021393014 0.116371326 0.14863409 0.11565022 -0.07904476 -0.14315426 -0.1456398 -0.0065215155 0.13198479 0.13303627 -0.15973474 -0.018464228 -0.12798508 -0.16224433 0.009055191 0.08330943 0.072900414 -0.02955361 -0.1028729 -0.022878002 -0.10847353 -0.0007773334 0.22686146 0.17766875 -0.1847551 0.03084871 -0.05469364 -0.043004047 0.1283663 0.06701287 0.03576303 -0.06890511 -0.100680135 0.032221794 -0.002048249 0.112084195 -0.112296864 -0.073017664 -0.03012693 -0.10369603 0.038155906 0.1013153 -0.050668456 0.085353926 -0.15734811 -0.15984105 0.09404729 0.18739533 0.16718945 -0.018729772 -0.095897734 0.0341479 -0.087391086 0.02010173 0.13853359 -0.009866973 0.11130276 -0.06808024 0.032011375 0.13533671 -0.023782508 0.06039234 -0.09336388 0.14066422 0.052535493 -0.061496332 -0.18388045 -0.16581422 0.021878961 0.04836361 -0.07302807 -0.08438782 -0.15425195 -0.20737047 0.13933471 0.21909949 0.17434315 0.12067616 0.087512895 0.08624668 0.20236547 0.016671518 0.22394806 0.07669317 0.09895372 0.23083493 0.317801 0.27436322 0.2042335 0.056632858 0.25077066 0.03350764 0.02763879 0.08721358 -0.09284987 -0.18310955 -0.18297863 -0.025741745 -0.025463942 0.10519363 0.092892684 -0.042318504 -0.08317645 -0.055582207 0.10580145 0.02763464 0.09515857 0.012678607 0.04071243 -0.17128845 -0.20805588 -0.20939024 0.017321223 -0.0006016863 -0.06896657 -0.09775614 -0.029284924 -0.109380774 0.09122084 -0.048399474 -0.102489226 0.0727053 -0.041290455 -0.09833964 0.079636626 0.051694553 0.10302653 0.087471604 0.15525474 0.074567884 0.040410463 -0.014343785 0.09431244 -0.032759875 -0.046326768 -0.09633943 0.0027429366 -0.0070124622 0.03606972 -0.10381395 0.05181874 -0.04532557 -0.14203393 0.08013808 -0.04218949 0.11279502 -0.057232242 -0.07626859 -0.10735619 0.08652911 -0.013782337 -0.006572062 -0.021478934 0.10291152 -0.025125278 -0.030825717 0.037454948 0.15134415 0.03089076 0.09463761 -0.082677424 -0.07771153 0.09992 -0.013058655 0.057227388 0.027135847 0.14526607 -0.03830034 0.0146572795 -0.05153045 0.023361063 -0.07716512 -0.15515248 -0.05314194 0.04398588 0.015567624 0.090823196 -0.09033271 0.03171423 -0.14062124 -0.0752746 0.024034722 -0.053700283 -0.023050508 -0.045833312 0.051394366 -0.04156736 -0.028326875 0.20949008 -0.042129964 -0.12271342 -0.06546658 0.04387891 -0.0741729 0.25534764 0.12184633 0.15129957 0.16130747 -0.057529133 -0.065728985 0.08715381 0.08254291 -0.11587504 0.042386487 0.08459579 0.12535766 0.09166429 -0.08022068 -0.04325203 -0.057730336 -0.114703484 -0.22241595 -0.22394675 -0.18928498 -0.043611653 -0.16597587 -0.0402676 0.029347215 -0.15674773 0.02439376 -0.06475837 -0.0021514762 -0.024848029 -0.10797816 0.109353624 -0.025320983 -0.098143734 -0.0057717757 -0.09568928 0.12754077 0.096682295 0.08702195 0.110694505 0.14108889 0.115292944 0.13201222 -0.0891964 -0.11595679 0.12886922 0.04729014 -0.013529239 0.08875739 0.18304466 -0.032853007 0.011916059 -0.0044924524 -0.11787096 -0.026818756 -0.09554745 -0.10617255 -0.13024017 -0.2320405 -0.13156763 -0.054149725 -0.05820492 0.017783653 -0.065593846 -0.10345932 0.15105665 -0.22768196 0.07357842 -0.08307193 0.11725175 0.025367387 0.023337606 0.14849108 0.17586489 0.11518577 0.17077774 0.05308418 0.12770395 0.1010086 0.14032207 0.097253054 0.061974633 -0.07780053 -0.08739807 -0.09551369 0.04967767 0.16228749 0.0012606096 0.013856512 -0.09635578 0.13921267 0.079205625 0.2477577 0.076526776 0.22543626 0.16808796 0.21376255 0.23216353 0.18703142 0.28271565 0.17309128 0.08845497 -0.05501246 -0.08002204 -0.047699973 -0.010707927 -0.015804468 0.011973736 0.076673105 0.07417225 0.06307674 -0.19165722 -0.09206815 -0.20718247 0.0044746087 -0.088171676 -0.008008028 -0.012700461 -0.025249584 -0.11304161 -0.112706214 -0.10739171 -0.10532917 0.011915729 0.11148022 0.09709669 0.094036855 0.0187772 -0.00497149 0.056416612 0.068603665 -0.06954213 0.084175885 0.16159679 -0.03337983 0.06292741 0.033498757 -0.10573435 0.08836238 -0.08709627 0.023370888 -0.06465379 -0.06302682 0.16105369 0.1250536 -0.11046053 -0.0042995294 -0.012684623 0.13287859 -0.0940719 -0.08633018 -0.12177324 -0.118168324 0.03499059 0.02769068 -0.08304078 0.035951328 0.022261208 -0.085507624 0.05406631 0.033804048 0.0034085806 0.15643725 0.05280564 0.0141208805 -0.075752474 -0.10411423 0.019597536 0.090619914 0.10032297 -0.05097998 0.052395947 0.10881481 -0.108727954 0.05435614 0.08009205 0.0058519975 0.17053834 -0.0111513985 0.17695968 -0.07068115 -0.07658425 -0.099159814 0.08720981 0.08890644 0.10208788 -0.002758343 -0.13399102 0.021044418 0.035973653 0.069512405 0.02811148 -0.10637824 -0.08935127 -0.0921156 -0.18382774 -0.039912798 -0.012621499 -0.07249904 0.106028885 -0.045064256 -0.09073102 -0.045005698 -0.09439257 -0.15174748 0.10509813 0.0546057 0.09533624 0.13136385 -0.118659295 0.04862207 0.18993795 0.1905068 0.16073032 0.037399534 0.13418272 0.14692086 0.24425842 0.11960043 0.15445234 0.14205706 -0.064547874 -0.08585979 -0.03717305 -0.12937374 0.012572201 0.04399848 -0.14590114 -0.10015642 0.052025508 -0.027309468 0.059261285 0.06692325 -0.108522706 -0.124730304 0.20611604 -0.22047348 -0.031982012 -0.09289749 0.00010541598 0.032795295 0.063291736 0.19094269 0.08919647 0.09977558 0.12653674 -0.08044051 0.0056599895 -0.11286821 -0.027212337 -0.03051131 0.01045391 0.15421605 0.047121283 -0.18191752 -0.101453505 -0.1273041 -0.091914065 -0.13722953 -0.08779275 0.067696884 0.004853532 -0.059634518 -0.061640143 0.05672281 -0.123398244 0.09001883 0.061503462 -0.07239318 0.01684933 -0.13558118 -0.10019684 -0.2478233 0.048978515 -0.06738772 -0.21179184 -0.036449682 -0.11196316 -0.12661792 -0.16902104 -0.110691145 0.25992775 0.18159395 -0.10762637 -0.0800792 0.02943205 0.021118583 0.06527003 0.109992355 -0.05063371 0.003932777 0.2219728 0.23678978 0.07273133 0.0735217 0.013422541 0.19764496 0.14765628 0.065756895 0.17369464 0.047958285 -0.013734501 0.12679988 0.12976159 0.076208696 -0.107714534 -0.12590432 -0.0785558 -0.0746519 -0.09484412 0.07186551 -0.027077708 -0.104868606 -0.14157403 -0.040990565 0.036733583 -0.05200032 -0.05149708 -0.020788293 -0.089692876 0.012625806 0.17999542 0.22774541 0.2770057 0.05788001 0.13581361 0.03440222 0.20925522 0.18709905 -0.056615517 -0.09690736 0.14583382 -0.016465684 -0.06323716 0.09745349 -0.1379011 0.08157096 -0.05428794 -0.20554756 -0.051340237 0.098608576 -0.06413227 0.0044441572 -0.15066855 -0.006530236 -0.066214524 -0.06988128 0.054990716 0.1252152 0.02503118 0.12278288 0.19112924 -0.037568435 -0.022451496 -0.034059364 0.067095645 0.12543474 -0.01636875 -0.05914511 -0.11049197 -0.08370174 -0.13878353 -0.20396213 -0.10497834 0.059032086 -0.095789365 -0.014344918 0.19021003 -0.009479131 0.1465474 0.060017653 0.020086192 0.06684208 -0.04414931 -0.13671935 0.041957792 0.23256876 0.11556747 -0.07146517 -0.086475864 -0.021089504 -0.24025176 -0.17067336 0.010074075 -0.20573585 -0.027912553 0.10170019 0.10636725 0.13804527 0.057936497 0.22167824 0.2486047 -0.00076571724 -0.0053668674 0.16430813 0.039047595 0.0997862 -0.0090435 0.013907341 -0.021730749 -0.041958503 0.03001753 -0.052276332 -0.02273987 0.10309472 0.06129077 -0.15205938 -0.0621079 -0.15430583 -0.15810269 0.051108632 0.10976132 -0.0766687 0.02054849 0.14665124 -0.115216866 0.07362419 0.05824229 0.11607628 -0.1489043 -0.1003492 -0.042581353 -0.053305317 -0.12653473 0.12420937 0.115825444 -0.13063626 -0.17931007 0.02500075 0.034368712 0.096746 0.04871072 0.002251785 -0.050491292 0.15315324 0.071243405 0.044724178 0.20950575 0.006963275 0.121606335 0.05951887 0.102572925 -0.035162747 -0.0030154083 -0.042484596 -0.1843013 -0.12569088 -0.05141977 0.059122283 0.09908299 -0.08529095 0.023557939 0.00051587005 0.059911817 -0.04071928 -0.022721311 0.12606323 -0.064250775 -0.088899225 0.12849107 -0.1275074 0.057867277 -0.0140306745 -0.05716833 0.008222585 0.17307328 -0.06126409 -0.15619428 0.09441162 0.11735266 0.0069731846 0.18210958 0.14601298 0.044869732 0.026624326 -0.140927 -0.017666878 0.13484704 -0.05679318 -0.094694175 -0.15868536 -0.031104965 0.051402606 -0.14354584 0.067009404 0.15222579 0.118719354 0.030387467 0.13637163 -0.07912772 0.012726656 -0.09985437 0.07262399 -0.045291707 0.009381377 -0.04002083 -0.038706265 -0.054885916 -0.12523863 -0.12243438 -0.12499999 0.037225462 0.1912912 0.1162577 0.15360473 0.12099674 -0.05181603 -0.18300614 0.027088085 -0.04184642 -0.04077513 -0.13880712 -0.03353905 -0.27569833 -0.2615007 -0.2784852 0.058346473 -0.09273622 -0.08106841 -0.08186013 -0.05991927 -0.15985566 -0.15959382 0.02165939 -0.1597021 -0.16320297 0.047103304 0.02516491 0.10959052 -0.030178556 -0.026875386 -0.042268284 -0.070167825 -0.0024243658 0.04172903 -0.19114053 0.103475414 -0.039959904 -0.10976117 0.14408194 -0.018629994 0.08719754 -0.099953294 -0.078629225 -0.014705906 -0.13352884 0.16017081 0.18954574 0.15136917 0.023005791 0.10647266 0.026444204 0.030796884 -0.042628963 -0.13376348 -0.1859844 -0.07745896 0.07558892 0.008582255 0.19828781 -0.026603874 0.078996085 0.08989666 -0.053278767 -0.015323571 -0.006093859 -0.010351711 -0.00410105 -0.08541285 0.09993139 0.08657232 0.11942138 0.114095874 0.07055528 0.057988893 0.093720146 -0.015359067 0.055003066 -0.19153939 -0.17155792 -0.25132668 0.20143849 0.05732478 -0.025915662 0.04648385 -0.0055364883 0.07812253 0.1105006 -0.18117884 -0.11128752 -0.10597333 0.053250156 0.124407545 0.115558036 0.01034739 0.011320641 0.017676866 -0.15098569 -0.013225428 -0.14047463 -0.14354955 -0.09786231 -0.13892113 -0.06244589 0.031329215 -0.030956281 -0.0039982973 -0.05235716 0.10897765 -0.041804656 0.015767291 -0.060883727 0.06723502 -0.07211478 0.05595601 0.017146092 0.107758366 -0.026048059 0.16158092 0.03259199 -0.044020846 0.08479532 0.016231483 -0.0637604 -0.15076503 -0.23922545 0.11697326 0.18562506 0.2029572 0.09092398 -0.017500157 0.10019995 0.07020585 -0.107321575 0.06328046 0.034488704 -0.033659317 0.024401743 -0.037025776 -0.0045001386 -0.03780513 0.008707408 0.1309843 -0.027621964 0.099254064 0.11543033 -0.017746722 -0.02061112 -0.14240007 -0.19620322 -0.14844899 0.09599436 0.10321891 -0.085763685 -0.07278954 0.048349615 -0.20322761 -0.17647538 -0.0072494806 -0.14442378 -0.052885044 0.18940915 -0.025326606 -0.093458354 0.119068965 -0.010057053 0.032213148 -0.16567291 -0.11442123 -0.09035178 -0.06482401 0.16629104 0.10132573 -0.049228467 0.018304775 0.049175024 -0.0686689 0.0029813284 -0.0022036366 0.01667579 -0.10729839 -0.07343834 0.0578345 -0.057078075 -0.07161627 -0.28910735 0.1695228 0.265843 0.07716153 0.16994813 -0.016138962 0.2153172 -0.0035898674 0.09742736 0.15209463 -0.067029074 0.058397423 0.026568878 -0.0058990195 0.13616227 0.14327386 -0.030260857 -0.12332387 -0.17032436 -0.19868805 -0.08761767 -0.21068242 -0.20452496 -0.0030442958 -0.15476102 -0.08954408 -0.11905748 0.11024871 0.11499376 0.15284817 0.15534315 -0.15576518 -0.060629975 -0.07651177 0.014570161 0.15987861 -0.19692002 -0.115641005 -0.010721923 -0.13910139 -0.17690995 0.0006077157 0.23852146 0.193829 -0.013826814 -0.035322674 0.1199382 0.078169964 -0.037335508 0.08555441 0.019508991 -0.1300344 -0.03528794 -0.08255644 0.06212553 -0.055285186 -0.008476339 0.014392891 -0.11566396 -0.0020062667 0.004799591 0.19744547 0.10672036 0.027528062 0.09967106 0.07711 0.05033858 0.02660119 -0.040470414 0.016335081 0.0892253 0.12720244 -0.0196021 0.047548927 0.017591877 -0.08193382 0.095187366 0.14795883 0.038528495 0.012524763 0.088761725 0.04772641 -0.09564505 -0.091655694 -0.12645988 -0.005611187 -0.057708852 0.057556476 -0.1053429 -0.11582819 0.13823012 0.15222853 0.030325383 0.039556213 -0.022742536 0.09243715 -0.120356634 0.11905314 -0.0034810142 -0.18301223 0.031774264 -0.023277152 0.016168755 0.17950553 0.09167366 -0.1553951 0.08076717 0.028624995 -0.017630205 -0.031781003 0.0144799985 -0.114205755 0.1195008 0.029250234 -0.13845377 -0.010969267 -0.07781646 0.14489347 -0.07818525 0.10003779 -0.022480631 -0.121153444 -0.20133285 -0.12559114 -0.006434142 0.038934767 0.054929737 0.049512345 -0.15014023 0.11534318 -0.006545156 0.18351538 0.040269773 0.058248274 0.11015507 0.11767894 0.16589372 -0.04181091 0.16348238 0.07049541 0.052058294 -0.08541536 0.0930443 -0.062697805 0.12920132 0.043705396 0.04573753 -0.029774064 0.12224235 -0.04741517 -0.16592792 -0.046900097 -0.0021514923 -0.019870127 0.017586488 0.039341208 0.17373002 0.117523424 -0.16245815 0.038466077 0.015668143 -0.028095555 0.25952443 0.15949802 -0.001538506 -0.019674802 -0.07203405 0.1334073 0.1400189 -0.011810994 -0.030660836 -0.024444982 -0.010682287 -0.15834978 -0.14616503 -0.07422554 0.09776809 -0.053514853 -0.16853875 -0.06036444 0.18606134 -0.18903548 -0.10061768 -0.13705705 -0.10780413 -0.07463278 -0.07504952 0.04685254 0.034590933 0.0998238 -0.06518028 -0.03424337 0.06272446 -0.18035795 -0.05542689 -0.18813886 -0.09323884 -0.053633228 -0.118120484 0.067340225 -0.06266448 0.14120127 0.20954734 0.23089127 0.029686045 0.12201583 0.12475816 0.06800305 -0.054454602 0.094865225 0.13723654 0.15394552 0.12090545 0.11304338 0.022621954 -0.11474297 0.19196582 -0.010108972 0.12702663 0.11901146 0.04269875 0.0644281 -0.07828508 -0.030331621 -0.11147188 0.059626948 0.15574498 -0.021446897 0.06709271 -0.028233007 0.053297084 -0.02293105 0.14851789 0.0038906066 0.08674864 0.01956184 0.0009583242 0.147721 -0.018807974 -0.093761794 0.03555715 -0.057108127 0.006024121 -0.028041936 -0.22486785 -0.24054572 0.18828107 0.0558558 0.07042601 0.040682524 -0.015528542 0.10823749 -0.009197708 0.015174121 0.09186146 0.038093034 -0.054339375 -0.024477703 0.17827694 0.08482565 0.18446518 -0.015836114 0.08711355 0.11159661 0.102291964 -0.11779083 0.12642054 0.10285765 0.048231114 -0.056770377 -0.16766003 -0.03822467 0.031253457 0.21950401 0.18611848 -0.03344984 -0.10868618 -0.07836082 -0.1422891 -0.13387422 0.041891277 -0.046304982 0.0951099 -0.067372136 -0.016507788 0.0521598 0.119893685 -0.06546885 0.12920298 -0.014493783 0.09534646 -0.03333074 -0.012825499 -0.0111299185 -0.13304262 -0.1376411 -0.00872882 0.09131233 0.18157758 0.1846157 0.1240243 -0.13376965 -0.020622471 -0.13391379 -0.08960114 -0.12377516 -0.010340728 0.01719791 -0.010080179 -0.063657396 -0.048918467 -0.022309368 0.16045508 0.086889595 -0.06303512 0.046906874 -0.021291696 -0.055497266 0.036423437 0.003482428 0.077349536 0.10688307 0.04650351 -0.02810728 -0.056330733 -0.04364097 -0.10374943 -0.10962535 -0.20634298 -0.13248779 -0.25460902 -0.10776826 0.11418214 -0.1533821 0.07670151 0.097973414 0.1850966 0.13931382 0.14708203 0.11186343 -0.02300845 -0.12739353 0.05994594 -0.021101447 0.11030212 -0.060565203 0.085176595 0.13402662 0.0059452727 0.13568461 0.11362966 -0.18943945 -0.274101 0.0003639535 -0.10958426 -0.09687002 -0.20645645 -0.020820254 -0.17725347 -0.12672721 -0.040687874 0.15051119 -0.05478216 0.04320933 -0.13977003 0.055451564 0.08247773 0.061245617 0.058594722 0.07571116 -0.07159599 -0.12460608 -0.007379492 -0.040136565 0.12627088 0.017214725 -0.04341346 0.045258205 -0.04364444 0.120874494 0.11723709 -0.08592952 -0.01938511 0.04419402 -0.06453219 0.03896085 0.015728032 0.091223806 0.18980579 -0.0050630756 -0.08419158 -0.17987347 -0.19500566 -0.03790878 0.008957395 -0.20117143 -0.01180773 -0.09152657 0.088487186 -0.10862362 -0.031307578 -0.012798819 -0.07387658 0.005441442 -0.030513324 0.10896298 -0.21437506 -0.08329059 0.022864882 0.047473226 -0.13665122 0.21079487 0.22584541 -0.0084652295 0.00026703253 -0.0069605163 -0.043525774 0.05908212 0.08632835 -0.07343462 0.07301308 0.0028736305 0.08227311 0.053278558 -0.18762664 -0.06689495 0.057076834 0.12178094 0.10139731 0.051774077 -0.05034725 -0.0065041217 -0.07742924 -0.12241376 -0.13275827 -0.071413316 0.08731872 0.058326554 -0.03547894 0.042877324 -0.07818406 0.09884026 0.12644418 0.021461321 0.26093957 0.028102651 -0.16109549 -0.09535059 -0.0806408 0.044658888 -0.093079396 0.000110813126 0.024131697 -0.047159296 -0.10203726 -0.013315754 0.10278446 -0.016702678 0.10972876 0.10023815 -0.041192308 -0.072118305 0.13832557 -0.064746045 -0.017479321 -0.13764672 0.024320075 -0.10768737 0.06352329 -0.09058851 0.06718392 0.03283193 0.09930078 0.08871079 0.1756943 0.09819906 -0.0002273394 0.023445113 -0.031213155 -0.24580982 -0.2338927 0.14077014 0.15479128 -0.06203237 -0.18949272 -0.15993683 -0.024568088 0.09634015 0.1314676 0.09614673 0.101154245 -0.16367929 -0.24288784 0.07317303 0.059837483 0.026464958 -0.15773788 -0.18807611 -0.22477038 0.011116139 -0.013403834 0.08544359 -0.08376252 -0.02971446 -0.10031712 0.0020082078 0.07365367 -0.112538636 0.08499802 0.032359727 -0.29110914 0.030343879 -0.033662014 -0.07846142 0.07327014 0.14220348 -0.23688188 -0.13877559 -0.13077481 -0.008139364 -0.11443068 -0.03528508 0.05145892 0.039555836 0.14504617 -0.0018199788 0.10809365 0.12143084 0.11809752 0.13508472 0.1347298 -0.12995335 -0.10120195 0.08485966 -0.065421574 0.09587513 -0.04815615 -0.036101747 0.12090237 -0.06571454 0.005234124 0.15971911 0.08191949 0.06443161 -0.051942203 0.04518116 0.027309705 0.088980116 0.055261336 -0.12283217 -0.14357299 -0.23272891 -0.061777886 -0.12380419 -0.04642809 -0.13984644 -0.1518765 -0.23664059 -0.021163419 -0.22053555 -0.26430458 0.16383323 0.25502175 0.08833759 0.042718165 -0.094393335 0.0025239475 0.07412226 -0.059485216 0.02232724 -0.14376983 0.032979514 -0.0887236 -0.0013792933 -0.21233295 -0.1489707 0.11409657 0.057425465 -0.05817982 -0.07499322 0.11614561 0.075207934 -0.09426857 -0.26707572 -0.26219696 -0.12675063 -0.16491373 -0.07799055 -0.026762009 0.21842006 0.1131035 -0.08574307 0.06946358 0.07348437 0.122776285 0.2901918 0.029445503 0.04353454 -0.03888198 -0.14134568 -0.007855663 0.127736 -0.021541558 -0.09417269 0.016637411 0.12533963 0.03830071 -0.16091761 -0.22246571 -0.15080652 -0.15801238 0.09346877 0.114374466 0.12816292 0.07569881 -0.021603111 0.11083081 0.045951363 0.13665918 0.029688125 -0.040219296 -0.018225254 -0.0462042 0.029983185 0.0716259 -0.078526534 0.0665391 0.0030858743 0.17374738 0.007424456 -0.110464476 0.2488972 0.22651534 0.18091469 0.09602122 0.12158426 0.1146826 0.047739793 -0.04316664 0.19612166 0.17497316 -0.1702754 -0.17328988 -0.1272412 0.06708542 -0.0029690082 -0.0010046045 -0.04651982 -0.07218965 0.05653784 -0.007856302 -0.12104927 0.15030164 -0.044166904 0.04234526 -0.11407533 -0.09858668 0.089520544 -0.10636224 -0.00084709434 0.08378959 -0.05402173 -0.026994038 0.124221124 0.10174386 -0.12526307 -0.11624144 -0.02901483 -0.050155535 -0.07354956 -0.12834221 -0.03423645 -0.11707084 0.056942727 0.10110341 0.1632019 -0.16376394 -0.07363704 0.12761974 0.0016451052 0.030462489 -0.1098281 -0.014986627 0.039857585 -0.010835426 -0.03795068 -0.13855189 0.0190823 -0.012675838 -0.076706655 -0.088803075 -0.12520722 -0.11232465 -0.1285059 -0.078632824 0.038582336 0.08387988 0.099467196 -0.040356793 0.0064597824 0.1504577 0.09431237 -0.094054796 0.003713525 -0.16381775 0.10312064 0.016509792 0.109727606 -0.14779782 -0.1423651 0.037016325 0.06497436 0.10642799 0.1300179 0.12137348 0.0518537 -0.160149 -0.080651194 -0.005458987 -0.094939396 -0.15251517 -0.084248364 0.10264782 0.11484914 0.12731606 0.12160886 0.06094939 -0.19766496 -0.15150101 -0.15574361 0.017840931 0.10192378 0.06882466 0.030473609 0.054298583 0.040296946 0.0149307605 -0.07144961 -0.0216562 -0.010597158 -0.016712284 0.104310706 -0.12563464 -0.0062184716 -0.08495399 0.03254959 0.086663395 -0.070888996 -0.100715764 -0.10510861 -0.20397386 0.09977264 0.14450991 0.34235063 0.17072845 0.14625514 0.07127701 -0.15691629 0.03358909 0.075065464 0.019476324 -0.10299449 0.020593297 -0.027557269 0.2137686 0.23278262 0.097586885 -0.19492175 -0.014706929 -0.019272523 -0.10177157 0.065185666 0.03800569 -0.011342122 -0.095426425 0.016982485 -0.14758529 -0.007668505 -0.12869291 -0.15980592 -0.0669565 -0.17799698 -0.05300069 -0.058388986 0.0877232 -0.031763174 -0.036150943 -0.14958774 -0.18935318 -0.10274554 0.004377136 -0.09614275 0.17194235 0.0010376486 0.060968295 0.078235924 -0.17634532 -0.12066201 -0.15415987 -0.006543904 0.09906292 -0.07513743 -0.051091187 -0.06180559 -0.058383793 0.06802085 0.14369117 0.14166653 -0.017709969 0.053724386 -0.018754823 -0.11223832 0.016271833 -0.050700814 -0.13782945 -0.022781046 0.09859586 -0.037274186 0.027649233 -0.058843084 0.09573892 0.09134222 -0.042326167 -0.030006189 -0.03984296 -0.034715507 0.07145385 -0.12631142 0.08758684 0.0010025259 -0.13285315 0.025883496 -0.057779536 -0.042025298 0.004423091 -0.06087952 -0.022604529 0.11139639 -0.09354045 0.0024117187 0.077712364 0.07707327 -0.075131945 0.039167266 -0.119468324 0.05298234 -0.036203314 0.018204402 -0.07578343 0.061449964 0.20804827 -0.11459549 -0.09813864 -0.16257513 -0.037583463 -0.041371055 0.027250487 -0.051426806 -0.13652956 0.0990084 0.07429351 0.00419556 -0.0005350542 0.15995353 0.08053924 0.14587423 -0.07285881 -0.11778442 -0.0766806 0.10833096 -0.057296854 0.22636397 0.09198516 0.10658574 0.21447317 0.16270353 -0.052552003 0.03860395 -0.10185158 -0.2616408 -0.2727137 0.010511706 0.032175638 -0.1381914 -0.0847357 -0.09089609 0.10193395 0.0498913 0.088795945 -0.035090216 0.13702822 0.09902501 0.021455305 -0.0039307773 0.03906444 -0.076739654 -0.021925671 0.15778211 0.26798666 0.04885391 -0.13502768 0.17397049 0.12872627 -0.042428937 0.1419192 0.007388668 0.0007323144 -0.13337032 -0.15356247 -0.03274289 0.057271402 -0.047295693 -0.06313665 -0.036280327 -0.018211316 0.11340782 0.0815665 0.01393394 0.07909563 -0.17398335 -0.218071 0.04193613 -0.1844114 -0.07287435 -0.038485795 0.07357762 0.013745849 -0.06247368 -0.058804788 0.106149726 0.19330518 0.10319968 -0.008313609 -0.034714486 -0.017566418 -0.16293418 -0.120074034 0.049734194 0.1361861 -0.08598909 -0.040407237 -0.029156616 -0.0727546 0.02648308 -0.06192168 -0.10925118 -0.09917334 -0.22608212 -0.13137133 0.061459586 0.16187395 -0.028620403 -0.19490656 -0.16331463 -0.088380486 -0.039174426 0.2855784 0.13077508 0.14194876 0.08978098 0.060723655 -0.006370566 0.06445407 0.06376476 -0.17161769 -0.22361429 -0.03171989 0.047852505 -0.15007183 -0.039999902 -0.09815758 -0.05137625 -0.24530447 -0.20117839 -0.1048058 -0.19003075 0.081565596 0.1777143 0.08512384 0.00095311133 0.118927546 0.02287189 0.008652988 0.14890558 -0.010113385 0.018891843 0.005061817 -0.09046008 -0.119228 0.22944038 0.15278706 -0.07700899 0.07524589 0.10996783 0.010379758 0.08898222 0.102573186 0.1883843 0.17800188 0.031982116 -0.004256988 -0.054168973 0.117111176 -0.057489205 -0.06520728 0.10552717 0.0065936716 -0.04279208 0.0050551523 -0.10006283 -0.045388017 0.013287706 -0.13648891 -0.07745739 0.08843138 -0.002822713 -0.08794956 -0.0011788706 -0.1464503 -0.020432394 -0.09514653 0.19047047 0.14597331 0.12029475 0.02459562 -0.04490916 -0.08159485 -0.11885052 -0.009558953 -0.10719524 0.026541198 0.06592137 -0.05112377 0.059634235 -0.1733409 -0.028424544 -0.06669418 0.02851448 0.11359628 -0.049295954 -0.012511356 0.029029693 0.18135774 0.138543 0.18552937 0.2349207 0.086163394 -0.031349923 0.017504707 0.07816975 0.12020629 -0.1153288 -0.14105715 -0.19496131 0.02621101 -0.09939541 0.15094711 0.22251382 0.09496295 0.07467369 0.19607265 -0.2499067 -0.12685177 -0.24150269 -0.09659116 -0.15156333 0.16794454 0.06445843 0.12989669 0.035660416 0.10173178 -0.15062875 -0.033105522 -0.09356293 -0.06811132 -0.09728987 0.18148853 -0.001860291 0.15006316 0.18695107 0.08786856 0.009408279 -0.12531222 -0.096237704 -0.113690004 0.054896563 0.12040057 0.046749163 0.025794573 0.199792 0.059781425 -0.1620783 0.0069263172 -0.105443306 0.034575645 0.005826504 -0.27427858 -0.10125624 -0.1684676 -0.18651488 -0.0697429 -0.017572975 -0.0028873757 0.07336535 -0.012166507 0.13183996 0.015455165 -0.059648085 -0.09689134 0.02076041 0.04147796 -0.09172946 -0.018962342 -0.15717806 0.021438183 -0.11734171 -0.04464425 0.156235 0.015011844 0.23627548 0.10009833 -0.046190333 0.10865834 0.081226386 -0.12476544 -0.18954743 -0.08713921 -0.15001754 -0.04559076 -0.042606615 -0.06027142 0.0031174836 0.1966123 -0.05110309 0.18019927 -0.013215373 -0.07413153 -0.15252355 -0.06546668 -0.15145837 -0.016698841 -0.076498546 -0.019830216 -0.13975202 0.10055781 0.07321053 0.13832968 -0.095044166 -0.05418605 0.10635213 0.08605899 0.11331131 0.056584768 0.0942717 0.005574478 -0.04820291 -0.03440949 -0.0021421807 -0.010121292 0.13943183 0.14159058 -0.020206047 0.069177985 0.12017081 -0.018389268 -0.068605274 0.0013697412 -0.033002306 0.025493423 0.196854 0.057322975 0.19313037 0.053411327 -0.06296884 -0.124298126 -0.112826146 -0.03360987 -0.08806557 0.09840988 -0.061994534 -0.013355683 0.09216619 0.009313955 0.13448265 -0.078275196 0.09773665 0.012926802 -0.032999795 0.1490167 0.10161024 -0.11683405 -0.07959577 0.13651372 0.04345848 0.045564745 -0.009183712 -0.06580595 0.15625712 0.12665138 0.009157526 0.12125415 -0.013189862 0.09096635 -0.15353636 -0.050858893 -0.114747 0.09219472 0.039661586 0.06291059 0.19468717 -0.022252906 0.13081005 0.1154679 0.16901384 0.21031913 0.19569279 -0.11234699 -0.046972673 0.09009177 0.10821807 0.10520547 0.17563261 -0.020893738 0.122274525 0.1828413 -0.021651816 -0.18016754 -0.14312667 -0.19564855 -0.21822824 -0.26254278 0.08822467 -0.08182211 0.0027722707 0.119093135 -0.11792498 -0.08065517 -0.056716498 -0.1573575 -0.20128345 -0.22649513 0.17406014 0.109709464 -0.08066766 0.022641363 -0.056885924 -0.042965006 -0.13862322 -0.051863346 0.046802748 -0.07417112 -0.076941416 -0.12824488 -0.10909391 0.014195243 -0.07246312 0.15657534 -0.053513434 0.07177517 0.014517201 -0.0989676 0.0955728 0.03752437 -0.09059554 -0.12764943 -0.041812085 0.06727004 -0.020145116 0.118143626 0.1301626 -0.025198637 0.09247711 0.034788232 0.043923892 0.20147844 0.15206689 -0.07671631 -0.031793285 -0.18555127 -0.12912641 -0.12007432 0.11277118 0.16502742 0.05838858 0.10144083 0.10526193 0.14981312 0.16917801 -0.015203984 -0.066977516 0.09664053 -0.06283146 -0.11031593 0.06392917 0.12654911 0.08604379 -0.14822766 -0.14282224 0.1333097 0.034764018 -0.049226232 0.117650785 -0.03393977 0.011966427 0.14575548 0.18175955 0.12823646 -0.07817647 -0.07769292 0.1090529 0.046280492 0.036599252 0.05839121 0.114466004 0.13489741 -0.055136696 0.095580816 0.05664628 0.026030034 0.013591751 0.06523558 -0.06126576 -0.16718173 -0.103066124 0.07436968 0.05530361 0.10248241 0.118284814 -0.0011648634 -0.08009962 -0.09422284 -0.011784226 -0.19126914 -0.041742414 0.08526882 -0.05278359 0.0031153867 -0.11162828 -0.03999886 -0.028129984 -0.03400806 0.17968151 -0.0010606075 0.021167146 0.027050048 -0.02196079 -0.12996665 -0.065844156 -0.21027568 -0.26946718 -0.13955633 -0.012625028 0.03787448 0.0066297753 -0.08422744 -0.065380305 -0.11213733 -0.09252443 -0.025959022 -0.046996295 -0.14411269 0.01959895 0.10544893 0.031173274 -0.04273743 0.12849623 0.12214688 -0.09242407 -0.09316843 -0.22253464 0.0023065964 0.11363841 0.03377331 0.20094445 0.12485578 0.009861285 -0.048198923 0.0048251473 -0.062385947 0.031323943 0.10094942 0.042720594 0.16802815 -0.01102093 0.12996905 0.049916133 0.073343694 0.054131676 0.024024855 0.025124202 0.11755475 -0.019098163 0.19416474 0.10069974 0.07387724 0.16702983 -0.050706025 -0.09598796 -0.019204242 0.09723799 -0.085152514 0.27708998 0.29225618 0.19960865 0.11632948 0.17201684 -0.13128607 -0.22700909 -0.04569866 -0.026730873 -0.13563247 0.10641223 0.15225802 0.03602793 0.03131968 0.110366635 -0.12041091 0.1019423 0.058101073 0.0026345036 0.020390796 0.04656601 0.07175816 0.023603927 0.055198055 -0.06709369 -0.03124463 0.04734574 -0.17611465 -0.15095682 -0.21504614 0.06367774 0.09742607 0.12514268 -0.044617925 -0.056957647 -0.15286334 -0.1511216 0.085607104 -0.06615462 0.020887105 -0.10247444 0.018033206 -0.04638901 0.10584115 -0.0104455715 -0.06741728 -0.07192021 0.02645513 0.012659934 0.117971316 -0.03196516 -0.042457264 0.05261952 0.08017813 0.14722668 0.035068568 -0.066845044 -0.07896685 0.16944326 0.06454994 0.017952312 0.14023909 -0.044619855 0.059945658 -0.05201982 0.045764815 0.06408268 0.10750496 0.13171674 0.12005373 -0.19233158 0.041597214 -0.072296426 -0.1490206 -0.053104173 0.12515305 0.10064805 0.020452796 0.17756116 0.054293137 -0.03711442 -0.15796772 -0.058804072 -0.11650567 -0.07503715 0.015541684 0.11753776 0.16602418 0.14011662 -0.009346995 -5.7253015e-05 0.1611795 0.055778947 0.0030754763 0.07512903 -0.076866746 -0.15909222 0.05688113 0.018846434 -0.012453308 -0.0023556727 -0.039799374 0.13071644 0.014580258 -0.010289365 -0.11424847 0.08477685 0.022744684 0.055541452 -0.12131718 -0.10784481 -0.092775814 0.07835653 -0.09387671 0.04747135 0.07607666 0.16288526 -0.05930104 0.076159306 -0.13755997 0.0853963 -0.0018631818 0.10707644 -0.020902123 -0.16443318 -0.0030510456 -0.012384279 0.028323162 0.11138032 -0.14085554 -0.14473157 -0.095290266 -0.1475675 -0.2531136 -0.080860905 -0.05473773 -0.04068696 -0.07727719 -0.1281917 -0.09786902 -0.002040972 -0.20809416 -0.11337604 0.01892713 0.0626589 -0.18764205 -0.15762034 -0.16390142 0.07310866 0.08692517 0.032546908 -0.075501256 0.06289412 0.053905964 0.097435676 -0.027189935 -0.19481799 -0.18093677 0.049621526 0.0862801 -0.14554264 -0.14144905 -0.20335707 -0.14782159 -0.117996655 0.0012470834 -0.1382596 -0.097869664 0.09945422 -0.19116896 -0.032405026 -0.064967 -0.026287576 -0.076393016 0.0042779683 0.045750108 0.020575456 0.09556746 0.12087851 -0.13968559 0.05565686 0.053443756 0.13930574 0.0012563058 0.052924093 -0.21350373 -0.11422876 -0.12596759 -0.052931536 -0.07152932 0.0614409 -0.057220522 -0.09266523 0.15490547 0.16076778 -0.0057976 0.11536842 -0.0071916548 -0.009170634 0.1328133 -0.11122024 -0.21606624 -0.20153436 -0.1686216 -0.07274673 0.108596176 -0.010254908 -0.04341583 0.1670459 0.07987115 0.024489148 0.19250213 0.13461152 -0.0073391334 -0.027316736 0.010868942 -0.052923944 0.034609072 -0.0799594 0.039443716 0.085260905 -0.110999666 -0.11343564 -0.09599381 0.026504997 0.23518816 0.09298152 0.2337857 0.02600863 0.09406009 -0.12582573 0.06204049 -0.06062567 -0.07977335 0.05613925 -0.12649944 -0.13250718 -0.07666316 -0.06665688 -0.09884429 -0.06481627 -0.0854068 -0.100838505 -0.13122782 0.12732211 -0.008130873 -0.10291556 -0.07628142 -0.082896166 -0.08565438 0.24947709 0.16990486 0.10556913 0.06322459 0.10540581 0.09383992 0.0837132 0.07591247 0.09978297 -0.116688 -0.12022553 0.0011206362 -0.028370265 -0.049869243 -0.12507364 -0.17795345 -0.18734454 -0.0969554 -0.1290792 -0.070994854 0.004517375 0.10533408 0.09756693 0.14908807 0.09525178 0.051273964 0.09732621 0.044506725 0.062182218 0.1889855 -0.05594078 -0.07774557 -0.030243311 0.08468361 0.059159074 -0.22896382 -0.035126645 -0.047727484 -0.06789241 0.0033330743 -0.11512068 -0.18979284 -0.1557368 -0.062019736 0.1733395 0.12861313 0.01656521 -0.14529099 -0.15534693 -0.08773349 0.0320462 0.08313821 -0.08746889 -0.09234841 -0.1422284 0.043819323 0.030913714 0.066481836 -0.11848114 -0.16237736 0.12596422 0.029445533 0.147153 0.0047620004 0.0049314164 0.026945814 -0.04170385 0.12170604 0.16016266 -0.0707584 -0.016653057 0.10034209 -0.08468507 -0.14114158 -0.014849598 0.08862492 0.13034347 -0.07990274 -0.006214772 0.007617208 -0.09347481 0.09392052 -0.06618755 -0.17655402 -0.17349878 0.0050766193 -0.17339416 -0.07583167 -0.14339194 -0.05474338 0.009621648 -0.05415864 -0.02741041 -0.024977332 -0.08018188 -0.037163258 0.025609327 0.1485714 0.12249652 0.07370812 0.10246404 0.01537075 0.18370236 -0.003358452 0.1933175 0.14292212 0.06236718 0.048562456 0.022729253 0.031439397 0.057866976 -0.049468175 -0.16660024 -0.057580467 0.017473461 0.031171793 -0.08452194 0.10225312 -0.044306293 -0.03676281 -0.0012485348 0.06802121 -0.09592418 -0.038723707 0.063396946 0.07237639 -0.08071533 -0.047330078 -0.075383246 0.11852834 0.09910996 -0.03550144 0.004810375 0.005672816 -0.047865007 0.016468145 -0.14128076 -0.15462926 -0.12590617 0.0035284436 -0.055692837 0.024035687 -0.06647997 -0.036001153 -0.12621841 0.13218766 0.029650178 0.04500771 0.034771822 -0.005703016 -0.22947548 -0.10815224 -0.08745854 -0.13258713 -0.015125976 0.14198394 -0.0019752388 0.16624957 0.022547057 0.137069 0.0214891 -0.16938868 -0.12930174 -0.080406405 -0.09051962 -0.014261425 -0.131941 0.044351548 -0.07722124 0.051205702 0.21161385 0.14821096 -0.07813846 -0.07359266 0.12920955 -0.044084184 -0.056536596 -0.04741708 -0.13099962 -0.12902525 0.037758272 0.14741097 -0.08355307 -0.029487109 -0.041729003 0.0029345048 -0.07762423 -0.09987378 -0.063759744 0.11334189 0.104556926 0.09461119 -0.047043234 0.011686527 -0.024347592 -0.003982448 -0.026155265 0.0044222297 -0.08758812 -0.03933371 0.009601446 0.033549473 -0.030150864 -0.038227536 0.035884824 0.13170189 0.13672486 0.08912226 -0.09324802 0.07621761 -0.071022585 0.055996325 -0.086980745 0.010008299 -0.07888099 0.054276403 0.049503 0.089613914 0.05671574 -0.09216342 0.018700387 -0.13815199 0.05280675 -0.19369917 -0.15670954 -0.11126235 -0.04800804 -0.005256589 -0.047701985 -0.18713623 0.006795888 -0.04621044 0.13638085 -0.018889392 -0.06402834 -0.0051441127 -0.05810915 0.077660866 -0.024418473 0.07136337 -0.20486851 -0.07824721 -0.16930796 -0.16950928 -0.034081317 0.043149184 0.012577416 -0.028238572 0.013074612 -0.12597859 0.14174512 0.15279806 -0.099548645 0.108520046 -0.110556975 0.12319933 -0.065353975 0.10868718 0.1281304 0.21167447 -0.001982816 0.010996415 0.23419625 0.09213845 0.20768943 0.04954958 0.081218556 0.0883591 0.003706755 0.0175487 -0.07536617 -0.07002425 0.02019766 -0.0771387 -0.066414915 0.03102155 -0.026287168 -0.07339521 0.04418141 -0.0028704263 0.23325425 0.05582315 -0.0019997465 -0.024905281 -0.08709166 0.1810631 -0.018079078 -0.031978738 -0.09985873 0.03463993 0.13960283 0.008262918 0.10691006 -0.04378031 -0.009112286 -0.21768376 -0.13507736 0.010842234 -0.100858174 -0.14041288 -0.037186548 -0.19465277 -0.19816731 -0.12573436 -0.105137795 0.035703596 0.08927828 0.08291527 0.03810598 0.081115186 0.10007378 0.08998422 0.18551816 0.13243197 -0.08090843 0.12594478 0.108839616 0.1011938 0.1723391 0.09087314 -0.07951258 -0.0865557 -0.12737809 0.13942726 0.13213012 -0.0371859 -0.15499598 -0.12435506 -0.07934576 0.021405347 -0.06607621 -0.04383179 -0.100680314 -0.07337955 -0.106778994 -0.07031174 -0.12929352 -0.12927182 0.106797315 0.10980563 -0.06579447 0.025729138 -0.16570325 -0.014355848 0.13336691 0.11739974 -0.018919049 -0.15236291 -0.048411377 -0.013934018 -0.14801851 -0.095623165 0.004887225 -0.1142957 -0.16135319 0.041974287 0.11662509 0.054795556 0.07398293 0.11958506 0.06592882 0.009582174 0.060457297 0.015695583 -0.0915649 -0.29386973 -0.110022 -0.26361036 -0.12403029 -0.08546889 -0.0440029 -0.11313629 -0.08625962 0.03457256 -0.12576701 -0.11981892 0.108993106 0.011326101 -0.10774732 -0.023272282 -0.04851306 -0.072270215 0.019963754 0.06784533 0.016963923 -0.07438266 0.11545662 0.011966155 0.09544716 -0.069453605 0.1579953 -0.025383294 -0.03884959 0.0004468116 0.12933965 -0.05215926 -0.14731148 -0.10980316 -0.019592253 0.21921761 0.044953458 0.06697032 0.12441754 -0.09491867 0.018262511 -0.11138587 0.012070645 0.101316184 0.11029501 0.12850943 0.03496529 0.16873278 0.049440775 0.14015913 0.19635637 -0.025754994 0.055880923 0.10662904 -0.055101257 -0.062394556 -0.03740325 -0.08399555 -0.08527482 0.055498354 -0.12626366 0.059649646 0.13137574 -0.020720726 0.049090706 -0.111211956 0.035720464 -0.11248733 0.14049242 -0.0042754556 0.11828375 -0.14682265 0.079413384 0.11609576 -0.076449506 -0.067495495 0.12735441 0.056119084 -0.08993994 0.061755374 0.04451703 0.07598001 0.138534 -0.12590612 0.014799054 -0.022170672 -0.03434679 -0.1729816 -0.0032074014 -0.16477017 -0.1787573 -0.13957873 -0.17076205 0.09399674 0.15466698 -0.07325162 0.11033937 -0.16079246 -0.1013343 0.11919093 -0.030703519 -0.071310215 0.106999636 -0.0951345 -0.01006893 -0.25161397 0.023823401 0.060896695 0.02087226 -0.22447275 -0.26501286 -0.07062725 0.14828454 0.0005591712 -0.12049691 -0.0054101544 0.087246515 0.08039733 0.13568932 0.07433429 -0.07684504 -0.10991878 -0.22854158 0.09140712 -0.0073195593 -0.11277396 -0.07477108 -0.051053442 -0.10640418 0.10695771 0.017063104 0.014108729 -0.13391969 -0.15469848 0.033327498 -0.10584639 0.02968565 -0.05434514 0.002666948 0.010788836 0.02637151 -0.062191326 -0.022616165 0.053900145 -0.074326545 0.099048644 -0.15612446 -0.0020781958 -0.09299733 0.0685622 0.12521772 -0.021676842 -0.027348023 0.08830672 -0.057918865 -0.033082955 -0.024367778 0.05115487 -0.21124522 -0.031068875 -0.1300139 -0.07004617 -0.16578685 -0.02530825 -0.010546695 -0.034610633 0.15409434 0.11524356 0.01857917 -0.11708021 0.058908418 0.014001011 -0.09994118 0.1401827 -0.1694327 0.15835735 0.06152265 -0.05560392 0.14848009 -0.093714446 0.07670176 -0.04151631 0.067595206 -0.0806646 0.08039522 -0.07101939 0.06762868 0.04377495 -0.039862297 -0.01724596 -0.078449816 0.018176237 -0.048068266 0.10910552 0.17623205 0.09234493 0.0075545716 -0.07946166 -0.15255056 -0.13534395 -0.11579459 0.08084298 0.06384768 0.042731106 -0.09832847 -0.07063835 -0.14458424 0.083268605 0.11492657 0.09283501 -0.037917852 -0.023353329 0.20026137 0.08552435 0.023783851 0.024118727 -0.024825519 -0.0031665657 0.045671523 -0.08828099 0.017441144 0.09234642 0.087928094 -0.1634808 0.019082757 0.011038466 0.020710893 -0.044771712 0.14177418 0.043089963 0.034578286 -0.06717977 -0.029199615 0.10795844 0.11410298 0.11439267 0.06941684 -0.056577172 -0.012598794 0.21395822 0.19526 -0.08719677 0.024331097 0.10133992 0.076668434 -0.050066132 0.063651934 -0.037823975 0.06342838 -0.09250455 0.03862806 0.24498986 -0.052890513 0.14806496 -0.028743738 -0.07435206 0.100747444 -0.021918606 0.11249796 -0.056260806 -0.16316374 -0.063613944 -0.053544063 0.11064627 -0.0036634032 0.1238364 -0.13573375 0.030968787 -0.04176187 -0.11210829 -0.066754706 0.09997773 0.016514834 0.14217801 -0.014483511 -0.0074192644 0.16777948 0.14132096 -0.07585008 0.119401745 0.067511946 -0.10389607 -0.031120574 -0.18956167 -0.06657206 -0.040891673 -0.1513673 -0.08404927 -0.17937812 -0.127863 0.1779303 -0.0005097547 -0.17272949 -0.14960118 -0.16727775 0.11974308 -0.039062943 -0.074341916 -0.16663367 -0.01847353 -0.076403946 0.14060311 -0.04735779 0.11781236 0.015243576 0.08767299 0.010283269 0.1434253 -0.08280988 -0.047376446 -0.15794387 0.06880547 0.067147925 -0.04310654 -0.06719537 -0.0010025973 0.10934571 0.2155439 -0.04416214 -0.009371651 -0.13100176 0.11993184 0.15927918 0.08545803 -0.11964398 -0.2155399 -0.11729891 -0.04375451 -0.027596202 -0.07339425 0.04727604 -0.2163306 -0.17895664 -0.19771607 -0.00057097495 0.1815959 0.10213721 0.17411453 0.1012716 -0.0137509415 0.073384225 0.0070099677 0.10083707 -0.093065575 0.12660629 0.046893638 -0.09056649 -0.14903677 0.13610108 0.18287899 0.16880742 -0.12452874 0.0419043 -0.135119 -0.008806549 0.01196031 0.15748952 0.105457634 0.17459922 0.21382576 0.12439101 -0.19160281 -0.22103263 -0.070249535 -0.09849269 -0.096949905 -0.045007966 -0.100368306 0.09036958 -0.10313847 -0.04684968 0.034110237 0.063458376 -0.14431822 -0.17747107 -0.17680538 -0.022264864 0.055255473 0.14937001 -0.21049331 -0.18664643 -0.18973176 -0.16091861 -0.0868172 -0.06896284 -0.20310296 -0.12606868 0.03655886 0.0006848416 -0.038845826 -0.12988655 0.04113745 0.08345112 0.076763175 0.07067245 0.008730778 -0.09145714 -0.1573757 -0.07013864 -0.03510657 0.04706563 -0.13777809 -0.1820162 0.010636958 -0.03862129 0.074102975 -0.123356946 -0.17730655 -0.09979146 -0.09754313 -0.030559683 -0.10641199 0.023173202 -0.071900055 -0.0034256487 -0.06886365 -0.08159711 0.03210805 0.028171353 0.07187772 0.06357148 0.07162381 -0.082235195 0.03174006 0.16438432 0.056010127 -0.085574366 -0.10107324 -0.1482881 0.0024765232 -0.02289449 0.16353694 0.13018258 0.22406703 0.057755996 0.22369753 -0.04121002 0.14853613 0.1215992 0.07768077 0.021246102 0.028385535 0.06851963 -0.037109334 -0.028219407 0.05197249 0.14874798 0.048470862 0.0808152 0.09389715 -0.023938907 -0.22187398 -0.19096859 -0.09465294 -0.10916094 -0.016962778 -0.042483624 -0.054895174 -0.16031605 -0.09980928 0.08199995 -0.038310897 0.049695265 0.089601256 0.18662034 -0.004704618 -0.0557061 0.019014392 0.047661 -0.06621466 0.036385372 0.115535 0.119771525 0.13932443 0.06297289 -0.13790242 0.04099614 0.058942158 0.031853907 -0.07029319 0.015351613 0.04657772 -0.101800226 0.014595482 0.08875542 0.13498622 0.19485596 0.09032173 0.2080542 0.0005101787 0.13648112 0.13658614 0.0853935 -0.02141547 -0.067127645 -0.1349644 0.01825702 -0.035497513 -0.009108462 -0.14419234 0.009649335 -0.11182021 -0.08628551 -0.038409393 0.07623571 0.20835339 -0.08290563 -0.13664056 -0.15273066 0.04644327 0.15912862 0.08392607 0.041591775 0.15642712 0.15950432 0.15582246 0.037034534 -0.0069971406 0.03144461 0.0481127 0.1604479 0.11900097 0.026218718 -0.11248957 -0.13029239 0.09004688 0.14750266 -0.12633856 -0.04026818 -0.0020882082 0.11151448 -0.14683393 -0.08705924 -0.043911714 0.08658674 0.020740699 -0.012898329 0.025518259 0.1666132 0.066181645 -0.11839145 0.15304682 -0.079612195 -0.1666085 0.040944424 0.116903305 -0.10958624 -0.15039396 -0.21300268 -0.14547999 -0.06288887 0.08497427 0.1056507 0.1266814 0.08300381 0.24538471 -0.17154287 -0.026089393 0.031140426 -0.09951626 0.046338357 0.08552432 -0.06619508 0.014928067 -0.036211826 -0.19354042 -0.06681485 -0.074353844 -0.07946106 0.10705251 0.039764814 0.099585444 -0.027707478 -0.027567415 -0.041762352 0.20649691 0.14643008 0.14167763 -0.08522649 0.12719864 0.035623245 -0.1949423 -0.10077117 -0.26513556 -0.19048584 -0.18172787 0.11922456 0.123831086 0.13338535 0.20049149 0.013499983 0.05634431 0.065128304 0.062625095 0.09425121 -0.03345616 -0.16767272 0.0036225438 0.058412936 -0.073998235 0.10067775 -0.16219416 -0.26077133 -0.21691893 -0.29184023 -0.26770797 -0.053043973 0.063216165 0.07581989 -0.015219654 0.0011398777 0.09565172 0.13369136 0.15209498 0.16186388 0.03437167 0.03560369 0.031442802 -0.11290647 -0.0049579553 -0.11398098 -0.0808945 0.14532721 0.168829 0.16012403 0.11158927 -0.12001577 -0.0017899002 0.0913882 0.056359015 0.18158036 -0.21781234 -0.16227685 -0.118544795 0.026554938 0.054911043 -0.036430717 0.14864874 0.112815425 0.2087618 0.22022234 -0.025052851 -0.00015578818 0.04923769 -0.074063405 -0.20927677 -0.043657817 -0.06474086 -0.10825265 0.12621015 -0.12183228 -0.021398794 -0.057375252 0.0026678175 0.119369715 -0.07043706 0.09711423 0.10746427 0.08814427 -0.08788096 0.04546392 0.13945356 0.0052039796 -0.03840316 0.10696739 0.13553618 -0.034870245 0.046461076 0.009826901 -0.13555153 -0.09454697 0.042307775 -0.009502302 -0.07729559 0.06648916 -0.015874682 0.0191902 -0.22582565 -0.15230294 -0.1248378 -0.12506823 0.15279993 0.11673356 -0.042107195 -0.034938265 -0.17073154 -0.094855405 0.07178383 -0.072882876 -0.07170593 0.0031467013 0.12302969 -0.017477786 -0.03419274 0.012104677 0.134731 0.12789603 0.055938277 0.058523756 0.15139623 -0.088075966 0.11705187 -0.06317336 0.102451704 -0.04252366 -0.03230504 0.050134912 0.080450274 -0.05080545 -0.028750302 0.11274963 0.15917014 0.09870374 0.046109002 0.10907325 0.24972712 -0.030398723 -0.15345518 -0.039949685 -0.0018852509 -0.027944423 -0.067120306 0.12564404 0.030317184 -0.11320137 -0.09973126 0.08753673 -0.13057342 -0.13085562 -0.001753862 -0.010327752 -0.08223056 0.026691828 0.018139236 -0.10490295 0.028701562 0.0011126889 -0.02604693 0.021511579 -0.12696505 -0.043454964 0.113141544 -0.01826524 -0.008897022 -0.074433655 0.08749271 0.099497974 -0.0023422746 -0.07399047 -0.09198336 -0.10992483 0.048166458 0.06828605 -0.037920054 0.15082544 -0.065730184 0.024471678 0.119882196 0.066054165 0.033188086 -0.061540693 0.11987405 0.10896234 0.16360924 0.15540916 0.13689469 0.041944493 0.01570089 0.058991387 0.056171503 0.019868694 0.056490827 0.22548515 0.091469206 0.05823088 0.20203112 -0.10041184 -0.08913756 -0.042461284 -0.01649599 -0.09670366 -0.08480176 0.060434178 -0.010182978 0.07795852 0.01889582 0.026079094 0.13118295 -0.07216946 -0.012557748 0.11878902 -0.015638473 -0.028687188 -0.0702539 -0.026116934 -0.001608569 0.04825085 -0.006125154 -0.07767075 -0.0010839577 -0.15752411 0.018305207 0.07078312 -0.014970948 -0.087682605 -0.21309873 -0.002824383 -0.06823064 -0.096661046 -0.11025491 -0.011026758 -0.07612137 -0.12572353 -0.11300809 -0.11591866 -0.042774696 0.12871993 -0.0066539114 -0.0015146811 0.059725486 -0.07650263 0.12715508 0.097252406 -0.08133116 0.051302478 0.05241701 0.03497658 -0.13895981 -0.07621707 -0.028227646 -0.16944017 -0.09332717 0.021212464 0.0117867375 -0.0039983843 -0.25726783 0.13529497 0.19783215 0.12610751 -0.03575292 0.006967597 -0.16960795 0.01859355 -0.053495146 -0.026742388 -0.15997419 -0.006388333 -0.1029887 -0.11654879 -0.14368287 -0.111761324 -0.018947933 -0.092126615 -0.10985795 -0.06648821 -0.012205253 0.00093188294 -0.11788452 0.03818324 0.12015879 0.1053105 0.07386589 -0.15397686 0.06769371 0.042293392 -0.014433853 -0.028344132 0.17569435 0.2466611 0.19445361 0.16694158 -0.172713 -0.16844176 -0.12449618 -0.0928064 -0.05373853 -0.09802925 -0.038200945 0.11757982 0.010036918 0.062262088 0.0070698466 -0.06711515 -0.059561223 -0.0661149 0.059632905 0.030594986 0.09888875 -0.066121936 0.007444046 0.042363267 0.081148684 -0.13635115 -0.14664264 -0.18485633 -0.3221027 -0.02048523 0.101439506 0.1553064 -0.03254562 0.0994863 0.012339595 -0.21230051 -0.0065039685 0.1604379 0.1339688 -0.09179403 -0.088872895 -0.19168314 -0.13335364 0.112715006 0.08976855 0.14316845 -0.0015571984 0.055386845 0.025734607 -0.020983301 0.030524472 0.029441595 -0.015204968 0.0071539017 -0.026218427 -0.099822216 0.0058581987 0.1194889 0.09177925 -0.108422495 -0.116324075 -0.018331353 -0.23124899 -0.26581332 -0.013767502 0.15689974 0.16362873 0.070672646 0.043062083 0.09247065 0.035118334 -0.10010169 -0.16576453 0.020568943 0.05572212 0.10222316 -0.03319916 0.09929773 -0.11241787 0.020441664 -0.043675087 -0.12133725 0.12361114 0.011979702 -0.038114786 -0.05290808 -0.09257238 0.012956537 0.1230323 0.102029264 0.080797225 0.024221977 0.09716786 0.19410975 0.24367061 -0.061999094 0.18854819 -0.030979846 -0.025087528 -0.07118763 -0.13350181 -0.009497195 -0.18287878 -0.110982984 0.22176214 0.22648945 0.21667634 0.1542587 0.01667701 0.106118195 0.080352835 0.10212452 -0.101540655 -0.11637514 0.096434295 0.20279172 -0.021424592 0.098778315 0.00076968904 0.021554908 0.12309685 0.26331845 0.19774039 0.10693085 0.07923745 0.20904851 0.16532166 0.29403123 0.12271648 0.1811107 0.17469539 -0.018986255 -0.029126402 -0.06802746 0.17558049 0.18854392 0.2237637 0.27129063 0.20926066 0.16530758 0.17729448 0.100508004 0.018557187 0.09778347 -0.011384106 0.0102874935 -0.0999197 -0.004375564 -0.08314169 -0.054221235 0.052492794 -0.16301504 -0.13030884 0.0030925912 -0.023800276 -0.13782442 0.059629176 0.028760536 -0.033369534 -0.09655797 -0.1516255 -0.01953945 -0.116318695 -0.06807885 0.06276658 0.015811777 0.023732401 -0.10324559 0.042444963 -0.064487725 0.016032698 -0.024745043 -0.04151989 0.10697161 -0.03622821 0.07412114 -0.13720605 -0.026330194 -0.08283838 -0.14330944 -0.12252633 -0.16255423 0.07241426 0.029070668 -0.05761182 -0.12347801 -0.035939377 0.04753028 -0.1422141 -0.11338631 0.03004442 -0.14271072 0.09683104 -0.07640541 -0.09244035 -0.014095524 0.012588576 0.12858187 0.05452412 -0.14561567 -0.09552126 -0.005291688 -0.15123206 -0.15585087 0.08049221 0.10523834 0.033519905 -0.027162949 -0.1423751 -0.12220852 -0.0298834 0.07455799 0.08247536 -0.021135218 -0.06380531 0.1300928 -0.060837884 0.044618446 0.0015645042 -0.008295122 0.0971624 0.16617127 0.046265647 0.017011533 -0.030457601 0.08112477 0.11968952 -0.06961953 -0.04536896 -0.03326336 0.11986142 -0.02101608 0.08858601 0.06481317 0.067494586 -0.05694825 0.0061270683 0.02005124 0.016634695 0.02551003 -0.17943446 -0.11779241 -0.077122234 0.11262371 0.1782567 0.19235802 0.0009705441 0.154583 0.123123854 0.116783045 -0.02116668 -0.09931383 -0.12301782 -0.1704721 0.11154559 0.099415936 0.13355052 0.2286619 0.057621397 -0.00892518 -0.12645233 0.032471687 -0.059513345 -0.16706993 -0.153006 0.07081248 0.072313555 -0.005214254 0.044240516 -0.040102534 -0.04141366 -0.025778783 0.08038521 0.1020557 0.0113130165 0.05566386 -0.07008613 0.019945 -0.029836023 -0.105130605 -0.010983914 0.11238358 0.09103116 -0.06102622 0.15774845 0.12160905 0.11886631 -0.0047318107 0.02088287 0.08749328 -0.06371278 0.11307197 0.06620093 -0.15685323 -0.061922383 -0.13674185 0.08981958 0.11917624 0.08506589 -0.02360678 0.039568834 0.10490655 -0.046934403 0.018311724 0.11532195 0.1151685 0.14619504 0.15073098 -0.12787847 0.050973 0.09591586 0.14612359 -0.01315698 0.11307385 0.06002717 -0.1722334 -0.07776449 0.16511379 0.120982416 0.09932352 0.0022937097 0.082173206 -0.105863005 -0.047060158 0.24328896 0.124189876 0.011811341 0.16514279 0.18782985 -0.10734261 -0.02366759 -0.12580988 -0.12483377 -0.04472897 0.046657853 0.01701398 -0.11919581 0.097989395 -0.06409006 -0.09580786 0.10328953 -0.07176373 0.048787408 0.028169949 0.014237609 0.10618395 0.13998869 0.010209206 -0.039473973 0.0915857 0.048908833 0.198522 0.20095444 0.20896612 -0.01753741 -0.11992061 -0.11715477 -0.107236065 0.047897194 -0.030394098 -0.14768042 -0.092328474 0.10088422 -0.14535399 0.109357886 0.21032164 0.0895073 0.04928196 0.22384275 -0.04380437 -0.15659899 -0.03298258 -0.14785454 -0.03156517 0.03178756 0.047043677 0.0004995983 -0.14392336 0.11274882 -0.02240477 -0.029858131 -0.08925632 -0.004676948 -0.16805863 -0.053272653 0.022363136 0.037456334 0.008727054 -0.14635219 -0.0308997 -0.026623316 0.123260744 -0.019811261 -0.09120658 -0.0730909 0.004238808 -0.16543399 0.02350785 0.036521602 -0.12605436 -0.0024028416 -0.16403846 -0.12271966 -0.13747367 -0.1104161 -0.2377028 -0.007606869 -0.14390352 -0.06982145 0.15602541 0.08016076 -0.10460292 -0.07682427 -0.018473288 0.2857014 0.20566016 0.17377786 0.13719682 0.053796764 -0.0354957 -0.08066444 0.15665469 0.1462885 0.086056456 -0.1353991 0.041335333 -0.011468998 -0.07656897 -0.0679887 -0.21741815 -0.1208944 -0.12636732 -0.14448017 -0.013527492 0.1455256 0.06328771 0.002069547 -0.012081637 0.17717052 0.05212341 -0.002389116 -0.01954911 0.15054223 -0.02212754 0.04992278 -0.11153333 0.089518785 0.019355953 0.11782872 0.012440053 -0.13481264 -0.100503094 -0.03028972 -0.11045963 0.0054155127 0.023309244 0.059375018 -0.10507294 -0.10788537 -0.12437715 0.10015008 0.13172248 0.10360519 0.024849793 -0.15648746 -0.13969097 0.034092825 0.014569538 0.074541844 -0.16452333 -0.1356904 -0.3146598 -0.10326353 -0.10615949 0.010057325 -0.18544908 -0.13471186 0.054004576 -0.06683238 0.10102621 -0.1313811 -0.15052016 0.00089163176 0.01407949 0.0040216283 -0.099953316 0.11464887 0.0034752304 -0.012867274 0.048005547 -0.021770952 0.07462571 -0.02644473 -0.05002728 0.14428462 0.03161106 -0.13039342 -0.0008932306 -0.09973299 0.08347177 0.035051778 0.020757902 -0.16562532 0.027150404 -0.043676514 0.0094331205 0.14791673 -0.1231096 -0.017561795 -0.10658871 0.05030602 -0.04428577 0.016753528 -0.08744859 0.1460164 0.13898279 -0.1921539 -0.10479252 0.11997668 -0.15922152 -0.07496294 -0.13359502 -0.20512865 -0.024054078 -0.0679328 -0.06903882 -0.18072233 -0.048976824 -0.094439395 -0.040933486 0.099772625 -0.011186485 -0.07796422 -0.014120319 0.02048396 0.02276201 -0.0156824 0.12489438 -0.010991327 -0.08271046 0.070076935 0.09672578 0.087153964 -0.01215593 -0.16209763 -0.09976746 0.0731303 -0.07810266 0.14935066 -0.14923558 -0.16666977 -0.03902804 -0.1578072 -0.23318486 0.0015083108 0.13387302 -0.009261841 0.19362299 0.13598546 -0.050045423 -0.052774593 -0.11034771 -0.07333367 -0.017264584 0.10229639 0.1039663 0.2313798 0.2420671 0.10840432 0.017832158 -0.104664125 0.17874776 -0.039517306 -0.050192524 -0.09409825 -0.10540956 -0.14064398 -0.051321313 0.12700881 -0.041402843 -0.036125883 0.028309466 -0.115522616 -0.08108567 0.05213205 0.024462016 -0.11236514 0.14667371 0.07778032 0.16961884 0.13588743 -0.09974537 0.013696479 0.14125516 0.081456676 -0.10386092 -0.21527842 -0.16051875 0.038069963 -0.034516398 0.0034483466 -0.1770458 -0.1362664 -0.03620472 0.10474296 -0.0022095754 0.07209884 -0.012883498 -0.047380447 0.114589356 0.097716145 -0.04017544 0.017343333 -0.090791196 0.08405619 0.014414461 0.042527467 -0.025465254 -0.10642444 0.121222116 0.09165718 -0.091707155 0.061910767 -0.048315756 -0.0943128 -0.17539236 -0.14016083 -0.15013437 0.16235916 0.035210207 0.015637994 0.21466823 0.06774184 0.30746973 -0.09162024 -0.10899476 -0.05906501 -0.08953493 0.011615306 0.08475635 0.14733434 -0.026383223 0.15313737 0.19299328 0.081023134 0.072904184 0.13894723 0.08644667 -0.014993207 0.029646836 0.03630686 0.057660047 0.14688371 -0.08035355 -0.012962461 0.11776656 0.049935423 0.08967815 0.16479391 -0.11050211 -0.03819705 0.01721599 -0.047224235 -0.10451171 -0.05572997 0.07445864 0.24403587 0.1381077 0.20208448 -0.0319967 0.1323867 0.024657533 0.13910176 -0.029450443 -0.077603534 -0.02008054 0.034618054 0.1866054 0.03620099 0.04988016 -0.01567202 0.11925767 -0.06948633 0.10127047 -0.22885041 0.07394643 -0.045842215 0.05367997 -0.15979762 -0.071518935 0.16981164 0.14178626 -0.009996499 0.00295001 -0.07723416 0.03515744 0.04112591 0.04861904 0.042473383 -0.02710599 0.06675334 -0.09851675 -0.011751936 -0.18408349 -0.12645862 0.05757785 0.020750957 0.10553658 -0.17377545 0.03403682 0.030757178 -0.028041113 0.13898817 0.105508015 0.05274774 -0.2297356 -0.061447155 0.020228144 -0.20872973 -0.17273869 -0.021708602 -0.1537515 -0.0016919494 0.08109078 -0.09055945 -0.039693188 -0.09123039 -0.057133045 -0.10531785 -0.22410065 0.2532913 -0.20017512 -0.022568105 0.014598232 -0.19868778 0.04795274 -0.03195188 -0.10588056 -0.21127918 -0.17032032 -0.18601951 -0.200629 0.03909789 0.23435295 -0.086780116 -0.0664654 -0.074870326 -0.09741187 -0.029338375 -0.15182754 -0.22121191 0.9791786 0.99662507 0.9544832 0.9438164 0.9662442 1.0216696 1.015494 0.9976033 1.0104489 1.1405494 1.0355783 0.9157027 0.9608195 0.9978626 1.0714688 0.98164266 1.0254588 0.96704453 1.0437661 0.9854567 0.9269532 0.9629493 0.9722169 0.89633167 1.066496 0.9885723 1.0259639 1.0097871 0.8786272 0.9185989 1.0225275 0.9524999 0.26220387 0.2449015 0.03301238 -0.005691865 0.13261403 0.09292822 0.32951352 0.29152638 -0.15274866 0.09015472 0.07408565 0.15098462 0.116084136 0.05621634 -0.01019631 -0.010785181 0.0026338068 0.13743584 0.008130043 0.01932154 0.056761675 0.13790497 0.17187443 0.02146096 0.45923954 -0.041116178 -0.008908027 0.14972952 0.019821143 0.063470624 0.096356675 0.33500388 0.8549408 0.7492655 1.1689076 0.80834115 0.81118834 0.6063358 0.7479863 0.67812306 0.7842023 0.6844697 0.8107286 0.9261302 0.63178194 0.8218762 0.73086715 0.7748253 0.8176516 0.8035472 0.63932174 0.58248746 0.8195796 0.7120424 0.6724569 0.7479958 0.80476683 0.682329 0.7312777 0.8200996 0.7004755 0.91606724 0.8908544 0.6982063 2.169524 1.2628493 2.8516076 1.4677318 1.9649024 1.052365 1.2735445 1.1688204 1.5185164 2.1982179 1.512286 1.6178616 1.0997701 1.900405 1.3041557 1.534781 1.4921752 1.2484201 1.3457186 1.1145024 1.5250704 1.3737111 1.4183829 1.7747415 1.3680694 1.288692 1.7911912 1.8001845 1.6178012 1.4638251 2.2246492 1.0985897 -0.044859543 -0.029127965 -0.06178594 -0.17329395 -0.25458953 -0.15513366 -0.06115071 -0.10053861 0.027934548 0.113114454 -0.03793961 0.04728081 0.08254397 -0.09069043 0.0037514525 -0.07058006 -0.08010765 -0.19689241 0.021126125 -0.027920913 0.016464703 0.16731879 0.12416221 0.08906799 0.16041033 -0.09509503 -0.18475348 0.1415384 0.037498564 -0.055676304 0.100650445 -0.118887424 -0.11731942 0.019480392 0.15589975 0.0100568775 -0.04361544 0.05187772 0.11697224 0.05331033 -0.0377442 -0.11617802 -0.069880195 0.045740914 0.12976643 0.035516933 0.15128516 -0.05348457 0.12948565 0.14737722 0.01547319 0.10014056 -0.08687142 0.060024686 0.08581553 0.055264894 0.083722696 0.034640163 0.16912119 -0.009924267 -0.17290354 -0.13381183 -0.17769818 -0.15840265 0.12293625 0.17868964 0.14478676 -0.024113532 -0.056877982 0.07819447 -0.11327345 -0.11724318 -0.10689239 -0.016207518 -0.0902042 -0.050647892 -0.1888788 -0.11229013 0.061019495 -0.20123379 0.06853647 0.009513951 0.18841311 0.16941898 -0.087289244 -0.07231046 -0.06931701 -0.049266584 -0.1534019 0.020662578 0.16256443 0.07319521 -0.070278734 -0.26025355 -0.1505104 0.15267381 -0.029681364 0.010870784 0.0017821488 0.025282526 -0.107063316 0.03250451 0.046397835 0.03777762 -0.13097307 -0.02722699 0.013667793 -0.013972453 -0.012358117 0.07880664 -0.054127418 -0.005945198 -0.07059052 0.014452863 0.020556843 0.0026007057 0.11685419 0.08807985 -0.16880183 0.012740433 -0.048967868 0.042068288 0.061245825 0.040491655 -0.034639455 0.19404952 0.1630851 -0.14672981 -0.08535875 0.085375965 -0.13634846 -0.18855463 0.029078921 0.042088706 0.19334105 -0.0093706045 0.04321174 0.02566978 -0.0491172 0.013862513 -0.089547105 -0.029800383 -0.20207614 0.068747476 0.09023452 -0.080987476 -0.10340754 -0.15282278 0.008857335 -0.091407515 -0.055578317 0.09180545 -0.098042764 0.09423193 -0.06643321 0.12566827 -0.062744774 0.059254274 0.14552675 0.051007226 0.08593442 0.12597643 -0.018772196 0.08204871 0.091777235 0.14514196 0.024847684 -0.011762623 0.0634376 -0.05049406 -0.094863385 -0.13148138 -0.10401028 0.014894892 -0.097561456 0.12882315 0.15666504 0.061171297 -0.062792845 -0.017972933 0.07584572 -0.021166138 -0.014469821 0.09993745 0.0075678094 0.136465 -0.023554305 -0.09520228 0.10500021 0.16126984 -0.07915006 0.029159753 0.118036345 0.01571382 0.010962154 -0.041108813 0.14414819 0.007984443 -0.015759377 0.124654435 -0.051361956 0.05001912 0.07222313 -0.00029622175 0.08085527 0.08818241 0.10196735 0.12146394 0.15010974 -0.040943664 -0.12521474 -0.14073637 -0.1611694 -0.21092911 -0.14977679 -0.00041791992 0.07237551 -0.14815035 -0.011964781 -0.055454645 0.03710001 -0.038999446 0.10116759 -0.046451904 -0.11079351 -0.13261946 0.05555371 -0.08135832 0.049067095 -0.038900096 0.032817576 -0.03632419 0.063531436 -0.1269904 -0.026560541 -0.027477285 -0.11997297 -0.0869508 -0.1439678 -0.116198875 -0.1513947 -0.026383026 -0.18187173 -0.02634315 0.07981215 0.020612832 -0.06915859 0.1713867 0.048851438 0.0044619064 0.021020144 0.031711303 0.17322308 0.031525947 -0.03420285 0.036242284 -0.17161866 -0.06216521 -0.10975558 -0.0334846 0.10814563 0.08375016 0.047181774 -0.057875853 -0.037191857 0.03571755 -0.13206999 -0.10855392 -0.0576771 0.049696244 -0.03870064 -0.08535945 -0.07172927 -0.096600056 -0.07612566 -0.04295332 0.013337735 0.046169776 0.0139115965 -0.049363967 0.10190438 -0.006481431 0.11679808 0.0977505 0.18182184 0.17619514 0.046980612 -0.028357346 0.110523134 0.13454844 -0.107283324 -0.051452763 -0.058706585 -0.003998246 -0.016585082 -0.13689762 -0.10408403 -0.09054296 -0.20158617 -0.12547569 -0.05854331 -0.11144721 0.083775334 -0.018143566 -0.08099152 -0.19360586 -0.078873664 -0.0031853423 -0.23784603 -0.0017884967 0.11526068 0.0062066778 0.13523681 -0.033354096 0.0458225 -0.02213376 -0.0066441465 0.10498911 -0.018651947 -0.07698546 -0.051938646 0.06782258 0.102169275 -0.078020714 0.07819681 -7.3679956e-05 0.056283414 0.18378356 0.12629348 0.11583868 -0.058094833 -0.02289969 0.0056632645 0.058653336 -0.06307487 -0.20159315 -0.23854716 -0.1682071 -0.11879929 -0.12244999 0.09045126 -0.06301623 -0.06944749 -0.01719798 -0.12529877 0.12128565 0.055735186 0.046882898 -0.15969895 -0.07828193 -0.14491113 0.008695168 -0.114237085 0.14631455 -0.08573091 -0.04806538 -0.14113566 -0.022882346 0.0865288 0.17153418 0.04048479 -0.012487797 0.037674982 -0.10079503 -0.079423204 0.17083879 0.18217498 -0.018182136 -0.110253595 0.04781898 -0.0010095957 0.06522632 -0.05999084 -0.083364606 -0.059377186 -0.061271604 -0.050427757 -0.006270504 -0.17593092 -0.046576872 0.14217451 0.075013146 0.13291974 0.17707814 0.18351525 0.02618726 0.09012081 0.15707938 0.19552673 0.01672085 0.06419355 0.06376103 -0.048338562 -0.008689401 -0.09818609 0.10439062 0.16413534 0.13740328 0.16325022 0.14136143 0.012726285 0.079799876 0.1050905 0.047739282 -0.06051088 0.022572134 -0.0022133398 -0.058345765 0.11323621 0.034313276 -0.043462552 0.09952626 -0.11774779 -0.0055000004 -0.019502163 -0.010574093 0.038640004 -0.10023663 -0.07826787 0.044908866 -0.24476454 -0.31384537 -0.19238442 -0.09927916 -0.18901812 -0.08402311 -0.04289071 -0.09964404 -0.008584303 -0.14588599 -0.013010029 0.07503677 -0.0710258 -0.00036965276 -0.103827074 0.00042757197 0.11811847 -0.02505534 0.053323705 0.011775941 0.008517177 0.00909982 -0.08102949 -0.10070544 0.077438675 0.01699539 0.109012365 0.08734159 -0.08391684 -0.035493344 0.0025308942 0.08848387 0.086383924 0.013292827 0.017475843 0.06060264 0.15229657 -0.09869065 -0.020657258 0.0877221 -0.049292613 0.038815007 -0.056713942 -0.123838045 -0.12236924 -0.14016272 0.06711111 -0.008429146 -0.034346443 -0.10380827 0.016895954 0.1205965 0.041013584 0.0777565 -0.06288588 -0.1695747 -0.02307033 -0.088738166 -0.17286886 -0.2656782 0.04433742 0.09940701 0.024456833 -0.022891242 -0.05434381 0.03548645 0.09423602 0.18920043 0.09213999 0.22933525 0.12469018 -0.038126636 -0.10570664 -0.0012477065 0.00092233205 0.07928164 0.010622021 0.08459838 -0.038229145 0.035429783 0.14463477 -0.010903029 -0.03988185 -0.10621354 0.011543966 -0.05601459 0.02168177 -0.22038475 -0.21841015 -0.11500826 0.019079871 0.11233177 -0.07678792 -0.018580016 0.07488337 0.047365133 -0.15894043 -0.16156906 -0.13778229 0.07538585 -0.08110904 0.06747324 0.0137612205 0.0399997 -0.16092713 0.057038672 -0.144423 0.061060205 0.02718717 0.04295249 -0.04468974 0.08661138 0.07131601 -0.007946826 0.08173824 0.10885838 -0.003112673 -0.06417661 -0.008735627 -0.10592401 -0.07421189 -0.08451238 -0.06725743 -0.15937337 -0.08569737 -0.017422322 -0.06786377 -0.09699159 0.13043456 0.117126256 0.18807721 0.058692127 0.05298674 0.08536958 0.23821181 -0.12669206 -0.11660553 -0.07310233 -0.0036331455 -0.14740531 -0.01808853 0.115121745 -0.061621707 0.023201112 0.027275415 -0.065284416 0.051623095 0.037535843 0.0027866748 0.14606187 0.15798715 0.0008174508 0.12773374 0.022094613 0.086966045 -0.022990642 -0.17726901 -0.11647755 -0.27942026 -0.18072422 0.0044847247 0.20413484 0.11931466 0.053463493 0.09044087 0.027169952 0.040059276 -0.04186408 -0.041480545 -0.08247682 0.07423824 -0.05413127 0.0011093217 0.081393845 0.094127454 -0.058835547 0.048672356 0.11767417 0.052375495 -0.0021832942 0.064935066 -0.050611075 0.017706625 -0.100068375 -0.11110648 0.085851885 -0.11789747 -0.22000425 -0.112421565 0.056282744 0.0140205845 0.024534965 -0.016391762 0.11167987 0.06139891 -0.17970422 -0.16634807 -0.016578121 0.17898321 0.10213092 0.07072597 -0.053122073 -0.015787877 0.079434425 0.095165506 -0.06623569 0.07900421 0.036766633 -0.06195849 0.13332418 0.03262513 -0.13575792 -0.06301964 -0.114797175 -0.07814093 0.17908461 0.14521791 -0.060270127 -0.008863462 0.02784622 -0.19952436 -0.17395596 -0.065967605 -0.16579527 -0.18109584 -0.02017686 -0.010994459 0.005149717 -0.0879069 -0.012145625 0.08757677 -0.08835876 0.14740303 -0.046571635 -0.08246172 0.20214108 0.09114378 0.17354329 0.06462249 0.044384297 -0.050487317 0.041485272 0.047351427 0.08093291 0.079080716 -0.106356815 -0.13633482 -0.051362563 -0.1816195 -0.06843258 -0.066521764 -0.16901703 0.057353016 -0.06492787 -0.03597232 -0.10639737 0.05042197 -0.082865275 0.0289259 -0.08035039 0.06869241 0.0073702307 -0.061740432 0.013974261 -0.057040434 0.016612861 0.060549755 0.115761496 -0.03941389 -0.04928614 0.18722726 0.16853945 0.17559445 0.11426566 0.1431886 0.02287546 0.02644494 -0.059890974 0.07684676 -0.007083631 -0.04777583 -0.014187067 0.12528808 0.07574981 0.10758753 0.028872546 0.025801998 0.13805413 -0.02006778 -0.018585568 0.06372728 -0.051061664 -0.113415554 -0.108761944 -0.056519713 0.1620199 0.07873448 0.21426801 0.09815289 0.14366841 0.13211228 0.032263182 -0.09540598 0.0984407 0.013143911 0.069179446 0.028694147 0.18370987 -0.0024552504 0.12544297 0.033408478 -0.024352526 0.05470419 0.06073394 0.16804105 -0.21810259 -0.06994668 -0.011265754 0.005067812 -0.1453158 -0.12836722 -0.09170682 -0.10101123 -0.08319709 -0.007833244 -0.015536823 -0.11991223 -0.03578016 -0.12220864 -0.13834216 -0.05422058 -0.16019501 -0.023923965 -0.042806823 -0.07295583 -0.07140307 -0.09387282 -0.11320674 -0.11819516 0.08243529 0.013012793 -0.12959646 0.0017808572 -0.06313147 -0.14198713 -0.09422961 -0.13623549 -0.10806476 -0.033235002 -0.13706848 0.004574228 0.014768244 0.022018682 0.0417687 0.016221585 0.11945053 -0.07923781 -0.07077537 -0.061109733 0.1627092 -0.11419657 -0.008078825 0.06109449 0.07509546 0.11492587 -0.17324719 -0.012804521 -0.06786519 0.0774551 -0.026496148 0.06929 -0.05647764 0.024636444 -0.063223705 0.047414508 0.14632826 -0.07789703 0.06216712 0.15451734 -0.09204947 0.04459155 0.031945758 0.015924746 -0.041280426 -0.08155257 0.110006526 -0.0010025529 0.08391467 0.008981873 -0.04045165 0.14958498 -0.018301183 0.09197107 0.043611985 0.10406031 0.14046869 0.044314954 0.047255855 -0.05169024 -0.042020492 -0.04835502 0.008886248 -0.10737533 -0.03378361 -0.03943452 0.029000236 0.04241809 -0.06719644 0.009268949 0.09072942 -0.20702401 0.013501253 -0.28458574 -0.30731702 -0.21864185 -0.15640838 -0.06077309 -0.007616762 0.006776855 0.009796895 -0.06159106 0.022638686 -0.106200516 -0.12917371 -0.08914111 0.063997716 -0.04431145 0.047749173 0.016158622 -0.063572146 -0.22805926 -0.079290144 0.06691002 -0.072775304 -0.110335104 0.043101188 -0.065561615 -0.16447236 -0.12132531 -0.08892561 0.046085224 0.030874806 0.018615307 0.12502462 -0.07377965 -0.04971194 -0.10364945 -0.15511948 0.010049493 -0.1384654 -0.10130272 0.061875913 -0.11824926 0.09537193 0.023171104 0.023587195 0.07850669 0.022888167 0.14844891 -0.0063979463 0.05633316 0.078659676 0.105157085 -0.06387586 -0.047682356 0.055034738 -0.013632727 0.10584789 -0.10570398 -0.099775694 0.06926975 -0.02250501 0.034952156 0.10473587 0.065281466 0.0485057 0.11693899 0.055211037 0.087845616 -0.14302333 -0.06791142 -0.034703344 -0.057081424 -0.06280496 -0.13759065 0.009457988 0.05556943 -0.048490006 -0.15080069 -0.119659804 -0.15483561 -0.13033448 -0.109074995 -0.07540746 -0.030989401 0.06682697 -0.06980368 -0.0063713198 -0.10191413 -0.04534919 -0.041974902 0.027786572 0.144774 0.07468943 -0.03766644 -0.017407091 0.15153268 0.11946277 0.102381326 -0.073339246 0.12823524 0.19008256 0.21490625 0.020339234 -0.08670524 0.17265509 0.16569467 0.08012361 -0.07932316 -0.123856775 0.08651403 0.027365217 0.03158049 0.04396623 0.19419324 -0.15492363 -0.13982023 -0.18182701 -0.19429149 -0.21450087 0.006914487 -0.004360892 0.1557018 0.06176153 -0.101071365 0.0180896 -0.054978937 0.017260505 0.0031774223 0.055017915 0.20203707 0.07508864 0.15781534 0.050804656 -0.023517406 -0.17875643 -0.047791474 -0.13182591 -0.106351785 -0.06602842 -0.0060695317 0.060923163 0.017103465 0.07399008 0.028881771 -0.07391905 0.10122504 0.058075637 -0.0343682 0.095106564 0.043222465 -0.023129223 0.06352859 0.02269206 0.08944881 -0.10499874 0.001525226 -0.1725906 -0.23767847 -0.26662022 -0.021784585 0.15909344 -0.039508615 0.0370075 -0.07390723 0.11614152 -0.058332756 0.059761226 -0.019266557 0.053261727 0.016620256 0.019938078 0.06910988 -0.01627354 -0.048078973 -0.0034362755 0.01906072 -0.08575285 0.086287044 0.03891709 0.17653382 0.034926344 0.14169906 0.04381861 0.06620608 0.15265812 -0.013788605 0.13157426 0.11534983 0.008437616 -0.072642155 0.13245028 -0.07758616 -0.11016973 -0.003914503 0.14311835 0.026640529 0.032459106 0.083212875 0.032876186 0.07942035 0.08902283 0.10068567 0.10914545 -0.09176651 0.21243857 0.12296575 -0.02123641 0.10068855 0.037585184 0.16367854 -0.008389293 0.14842825 0.023655163 0.075322755 -0.09250741 0.010933664 0.20453312 0.14380164 0.26558173 -0.05131074 -0.1302432 -0.08356123 -0.20877795 -0.16104464 -0.040053923 0.08028612 -0.14107774 -0.093078405 -0.11159814 -0.08394832 0.07060267 0.08831965 -0.040195532 0.06532491 0.006894272 0.13278161 0.040416595 0.053620197 0.06782047 -0.05764159 -0.013760229 0.08209393 -0.096428275 0.0003612804 -0.02494683 0.05293843 0.07086488 0.020353947 -0.12688139 -0.1558453 0.030869674 0.06841191 -0.087888375 0.029460546 0.22714579 0.16179945 0.023986068 0.050033912 0.014740679 -0.15308996 -0.14947933 -0.12227288 0.014206726 -0.029689893 -0.1382131 -0.15177257 -0.17199022 0.013566318 -0.2134509 0.0054302844 -0.07583369 -0.023018852 -0.06598391 -0.03897533 0.0927983 0.021896016 0.11406529 -0.06420809 0.02253925 0.08960121 0.1240771 0.14249429 0.067455895 0.026274346 0.051499117 -0.11707264 -0.051683586 -0.10024778 -0.04700959 -0.010782643 -0.16369393 -0.09005752 -0.029262466 -0.033249743 -0.043325394 0.014714027 0.14714201 0.1329954 0.03660917 0.15564789 0.20014507 0.11893791 0.048784133 -0.037978966 0.03270022 0.07452356 -0.07790062 0.07268214 -0.079263665 -0.16340762 -0.11585667 -0.08549158 -0.05319854 -0.09770137 -0.06275195 -0.15346825 0.0024431096 0.0047223447 -0.14196424 0.050344504 0.1073084 0.031620227 0.083411194 0.03881258 -0.03689011 0.09089188 -0.025849191 -0.0757181 -0.031431716 0.04667343 0.118127726 0.025042605 -0.019649593 0.08499607 0.052082565 0.10943231 -0.052779365 0.04464615 0.1725201 -0.11104898 -0.013818713 -0.019753452 0.06564762 0.026640853 -0.13919355 0.05347885 0.089531384 0.03167204 -0.04417689 0.061176762 0.07258399 0.18258053 0.21739991 0.19416733 -0.032948107 -0.05496748 0.0144042885 0.16525634 0.046007328 0.077094175 0.03730891 0.074158385 0.057276186 -0.03496543 0.001919652 -0.1602404 0.08726389 -0.08023884 0.002112561 0.1301989 -0.06463131 0.022698868 -0.03972913 0.08759961 0.014277913 -0.025258804 -0.16599523 0.034190636 0.018971227 0.23157705 0.07978948 0.22109091 0.1400348 0.05944191 0.087630205 0.041226767 0.07780991 0.08424157 0.13303724 -0.11358561 -0.028720528 0.015717423 -0.13363597 0.023150334 0.070245385 -0.097695336 0.053339615 -0.06872029 0.13940872 0.06135764 0.09168589 -0.046966285 0.042133715 -0.040989283 -0.073553376 -0.037085887 -0.12482074 -0.12975994 -0.22840798 -0.2023005 -0.2607576 -0.2750801 -0.13923961 -0.17679393 0.024324445 -0.019041097 0.003947989 -0.015435795 0.09826895 0.107166186 0.020026542 -0.040795192 0.04945939 0.18728885 -0.11662144 -0.2060143 -0.13168572 -0.044796083 0.028975107 -0.08347949 -0.08075318 -0.12585919 0.051377032 -0.012934861 0.08843515 0.18473986 0.02288696 0.06637996 0.1568376 0.07005462 0.11965413 -0.055896126 0.038750295 -0.021063205 -0.06977492 -0.025115993 -0.04689804 -0.08013348 -0.16064174 -0.056041725 -0.008299894 0.051390134 -0.02011669 0.0936172 -0.057977937 -0.08199405 -0.009785096 0.09148686 -0.029867839 -0.12953709 -0.057377674 -0.06472967 -0.25155166 -0.29966244 0.12294825 0.1487248 0.1440796 0.08985642 0.108828224 0.016113942 -0.16185267 -0.09180756 0.07579208 0.05888789 -0.17227577 0.018301418 -0.04397498 0.07018231 -0.0694159 0.09651494 -0.15593089 -0.08377299 0.039855834 -0.0896806 0.067367435 0.03861323 -0.124096684 -0.15507536 -0.12742947 0.057579897 0.0011017253 -0.025493188 -0.11372111 -0.14925678 0.09522108 0.06550679 0.060371656 0.005268898 -0.22360633 -0.03486911 -0.11249608 -0.08586348 -0.09998026 0.08375658 -0.0041600536 0.097906046 -0.0015818655 0.10776831 -0.06738433 -0.12964587 -0.023811357 0.08020256 -0.046693146 -0.029949415 -0.070211284 -0.18464488 0.0016845538 -0.2553986 -0.16899289 0.1045209 0.12391042 -0.038067978 0.068990014 -0.009132025 -0.05230579 -0.06673239 0.011338705 -0.025204664 -0.06270458 -0.101506606 -0.14126824 -0.11826896 0.01412302 0.0018938775 0.07161678 0.011555126 0.11500611 0.10437956 -0.0050618295 -0.029913532 -0.0046653 0.035769626 -0.02057949 0.13716795 -0.051596116 -0.09149222 0.058071572 -0.11717811 -0.06410896 -0.15607843 -0.08025181 -0.15751521 -0.12249211 -0.10807757 0.025692316 -0.03953896 -0.08687938 -0.19654162 -0.070984 0.04268294 -0.13984084 -0.14468062 -0.031951528 -0.1055539 -0.020503012 -0.18435857 -0.122437865 -0.16697058 -0.06740022 -0.102696575 0.06840146 0.13604134 0.035522006 -0.017998373 -0.06564012 -0.056643136 -0.034281943 0.0102981785 0.09747543 0.14932874 0.030395862 0.15932442 0.15977131 0.14079691 -0.066287704 0.065945856 -0.17798986 0.06861638 -0.015134167 -0.078233816 0.07705097 -0.060281012 -0.08398799 -0.15124333 0.017816382 0.13641135 -0.10733887 0.028672261 -0.06492283 0.113489956 0.11240739 0.15968159 -0.09610294 0.10939004 -0.0038909302 -0.02932218 -0.020070298 0.023488047 0.016614154 0.024804652 0.09784188 0.065267175 -0.060279943 -0.018892935 0.036517467 0.037429377 -0.024040135 -0.07590049 -0.14440934 0.09710942 -0.005556504 0.06627214 0.10587849 0.06923701 0.04872101 0.040685397 0.11936696 0.04207698 0.100958884 -0.02635504 0.004919964 -0.020011488 -0.063021846 -0.13910358 0.07797678 0.07898899 0.13840464 -0.15516068 -0.13347545 -0.026578983 0.103220806 -0.038894072 0.17069462 -0.025983416 0.13507289 0.04716014 -0.050387576 -0.14074112 -0.13347073 -0.09666084 0.1154454 0.09608545 -0.064358704 0.08023434 -0.068741724 0.050449457 -0.028456224 -0.016444072 -0.071195245 0.015288942 0.054018315 0.13740717 0.14841296 0.12427541 0.09860415 0.05142285 -0.044722117 -0.14914526 -0.1269211 0.14077584 0.076362595 0.17157659 -0.0028646106 -0.018389987 0.060767476 0.047614958 0.11099227 0.179284 0.13804886 0.20349288 0.19424687 0.022095328 -0.09923906 -0.054282624 0.12354829 0.20081562 0.11942757 0.09702654 0.094212964 0.056089316 0.048213378 -0.03563032 -0.097034656 -0.01310451 -0.054127216 0.07516837 -0.009196059 -0.11893471 0.06765676 0.023872845 -0.013804982 0.1205412 0.07413875 0.07478238 -0.010256241 -0.22469264 -0.023137283 0.05710952 0.0052616675 0.07908028 0.10104949 0.15863681 0.13036892 -0.027184648 -0.10175158 0.05663773 -0.021111676 -0.102928765 0.033039 0.13335626 0.08036125 -0.08077723 -0.026441114 0.16961235 0.16669661 0.0537416 -0.078740686 0.034219593 -0.0020908255 0.16143468 0.10521322 -0.043582663 -0.10100915 -0.16498671 -0.081582434 0.12213606 0.1232793 -0.011237501 0.012858917 -0.028661398 0.06036087 -0.101024605 0.06418723 -0.12925093 0.10951097 0.09475378 -0.070793256 -0.17061698 -0.04676634 -0.09490135 -0.008870774 -0.15290937 0.05105183 0.16493087 -0.21049899 -0.22625214 -0.14818077 0.11669755 -0.10143574 -0.18754594 -0.0922835 -0.04957563 0.054888356 0.06540388 -0.14461674 -0.15729263 -0.00829524 -0.04380777 -0.10868589 0.02734961 -0.04108186 -0.009413821 0.12780666 -0.06291802 0.14152615 -0.03417416 0.06431195 0.10223394 0.1861241 0.06832209 -0.09763187 0.06972238 -0.030128185 -0.08883988 0.092915565 -0.00025473352 -0.03490603 -0.009793591 -0.08901254 0.057490036 0.02404446 -0.023818247 0.08852281 0.07792312 0.02190671 0.083784655 0.20977658 -0.0005485138 -0.018358644 0.006601308 -0.15723483 -0.019291898 0.0896872 0.0378486 0.054217853 -0.08894915 -0.096944235 0.024085926 0.06606594 -0.12263026 -0.20919177 -0.23183301 -0.20382795 0.10559147 -0.08423789 0.06376119 -0.0683633 -0.18162619 -0.13959113 -0.06540547 0.030210858 -0.084010124 0.02220595 -0.012652325 -0.16844061 0.02699255 -0.09254344 0.10630084 0.0039576176 -0.016417475 -0.1352446 -0.026723545 -0.066400535 0.18050982 0.15169796 0.14239159 0.11821521 0.1042388 -0.05973559 0.028042028 -0.04708537 -0.20803252 0.011439927 -0.15085918 0.21597831 0.10735551 -0.025571054 0.025860846 -0.054212313 -0.10935052 -0.032036822 0.066584036 -0.16933836 -0.20802599 -0.08410192 0.083774865 0.0407255 -0.09940739 0.016848696 -0.08221424 0.16135114 0.047664613 -0.042035166 -0.053393077 -0.016871829 -0.07186842 0.051257145 0.15112574 0.18516952 -0.020612454 0.10798392 0.013843649 0.03559125 0.13586415 -0.1691427 -0.0835179 0.13225213 0.1410364 0.0025008046 -0.11799581 0.1393014 0.056965485 -0.032281082 -0.04873909 0.054256324 0.011986499 0.15805708 -0.102123514 0.045559343 0.025263501 0.052426472 -0.08669309 -0.09735344 -0.1619894 -0.0536276 0.004608638 0.0038996434 -0.032400254 0.08532709 -0.20672663 -0.15752539 -0.14030194 -0.06617126 -0.03482867 -0.2714136 -0.07035294 0.042280465 -0.02857823 -0.04829685 -0.2712774 -0.02627744 -0.14691247 0.10640486 0.023226235 0.16658203 0.050971396 0.0074532246 -0.06806692 0.050905023 -0.08763306 -0.06117829 -0.003269988 -0.044027116 0.038647998 -0.1597386 -0.17028177 0.08848181 -0.010436282 0.2120633 0.092902444 -0.06758776 0.03458433 -0.07179067 0.055061057 0.124704875 0.0395318 -0.13117981 -0.14994 -0.1117971 -0.036604494 -0.20849821 -0.24347438 -0.08940093 -0.20708585 -0.19173668 0.07406592 -0.08391815 0.0023469455 0.077514045 -0.15148436 -0.030078113 -0.07496742 -0.005000621 -0.0057060416 0.09738076 -0.0122412965 0.022273708 0.09765944 -0.009426697 -0.03763619 -0.019710856 0.115765326 -0.01106776 0.053373206 -0.06549575 -0.004366122 0.1905349 0.1789749 0.014505634 -0.10939147 -0.08934569 -0.029551793 0.16596678 0.17984638 0.18320231 0.19250353 -0.12179089 -0.020024346 -0.08171688 -0.31645623 -0.118324175 -0.059021357 0.15157089 0.0894819 -0.11168071 -0.0018047553 0.04076556 -0.03031682 -0.03104298 -0.054354634 -0.10858866 0.08024733 0.1440736 0.06972294 0.027954945 -0.10264946 -0.1611693 0.0011916686 0.0039036386 -0.03547041 -0.15148583 0.10398565 0.09707558 0.06492627 -0.058790635 -0.17055477 -0.2542113 -0.26382038 -0.15566635 0.0023275039 0.061480265 0.21389838 0.19872084 0.07825604 0.14606987 0.047081392 0.044814903 0.07411545 -0.07643171 -0.030049916 -0.00981746 -0.07412655 0.119520664 -0.0016915 -0.09819857 -0.17971721 0.056868374 0.052737266 0.10431086 0.0090167625 0.005101409 -0.013049384 0.028011758 0.05772341 -0.06932845 0.056727294 0.044729948 0.020056741 -0.13727151 0.12647939 0.062727585 -0.07647253 -0.02858008 -0.06705035 0.08477887 0.07182552 -0.032136116 0.06286969 0.15450385 -0.09931051 0.10592776 -0.009865863 -0.103083365 0.033742815 -0.16638482 0.05739731 -0.062159397 0.073628515 0.10628203 -0.022790803 -0.04564245 